{"learner":{"attributes":{},"feature_names":[],"feature_types":[],"gradient_booster":{"model":{"gbtree_model_param":{"num_parallel_tree":"1","num_trees":"10"},"iteration_indptr":[0,1,2,3,4,5,6,7,8,9,10],"tree_info":[0,0,0,0,0,0,0,0,0,0],"trees":[{"base_weights":[6.731819E-7,-8.7538864E1,6.419517E1,-3.759136E1,-5.175459E1,4.002412E0,8.980147E1,-6.7249176E1,2.2310423E1,-1.12616205E1,1.908004E1,4.2860443E1,1.0572052E2,-2.2767044E1,-5.672967E0,9.036217E0,1.003474E0,-1.2738196E1,3.180915E1,3.6433692E0,1.37867E1,5.115928E1,3.4529266E1,-5.5101185E0,-2.2206976E-1,1.2175783E0,1.0964263E1,1.7427952E1,4.5536413E0],"categories":[],"categories_nodes":[],"categories_segments":[],"categories_sizes":[],"default_left":[0,0,0,0,0,0,0,0,0,0,0,0,0,0,0,0,0,0,0,0,0,0,0,0,0,0,0,0,0],"id":0,"left_children":[1,3,5,-1,7,9,11,13,15,-1,17,19,21,-1,-1,-1,-1,23,25,-1,-1,27,-1,-1,-1,-1,-1,-1,-1],"loss_changes":[2.9221772E5,2.3246094E4,4.5879977E4,0E0,1.641925E4,6.9796606E3,1.1161172E4,3.1596016E3,3.4362756E2,0E0,3.6453342E3,1.0739453E2,1.7860312E3,0E0,0E0,0E0,0E0,1.8900885E2,6.40626E2,0E0,0E0,1.1615332E2,0E0,0E0,0E0,0E0,0E0,0E0,0E0],"parents":[2147483647,0,0,1,1,2,2,4,4,5,5,6,6,7,7,8,8,10,10,11,11,12,12,17,17,18,18,21,21],"right_children":[2,4,6,-1,8,10,12,14,16,-1,18,20,22,-1,-1,-1,-1,24,26,-1,-1,28,-1,-1,-1,-1,-1,-1,-1],"split_conditions":[1.8939443E-2,-6.896646E-1,-4.2246357E-1,-3.759136E1,9.2027044E-1,-1.060966E0,4.1830027E-1,3.19054E-1,-3.306644E-1,-1.12616205E1,2.682801E-1,-8.037429E-1,1.2836567E-1,-2.2767044E1,-5.672967E0,9.036217E0,1.003474E0,-6.6560525E-1,-9.8252934E-1,3.6433692E0,1.37867E1,-3.803699E-1,3.4529266E1,-5.5101185E0,-2.2206976E-1,1.2175783E0,1.0964263E1,1.7427952E1,4.5536413E0],"split_indices":[3,3,1,0,2,4,3,4,0,0,3,0,1,0,0,0,0,0,0,0,0,0,0,0,0,0,0,0,0],"split_type":[0,0,0,0,0,0,0,0,0,0,0,0,0,0,0,0,0,0,0,0,0,0,0,0,0,0,0,0,0],"sum_hessian":[5E1,2.1E1,2.9E1,9E0,1.2E1,9E0,2E1,1E1,2E0,2E0,7E0,6E0,1.4E1,8E0,2E0,1E0,1E0,2E0,5E0,1E0,5E0,3E0,1.1E1,1E0,1E0,1E0,4E0,2E0,1E0],"tree_param":{"num_deleted":"0","num_feature":"5","num_nodes":"29","size_leaf_vector":"1"}},{"base_weights":[2.5759473E-1,-6.3822277E1,4.7240913E1,-2.8469732E1,-3.9285587E1,2.3204913E0,6.638203E1,-5.578745E1,1.575259E0,-9.009297E0,1.4162234E1,9.747697E0,7.777175E1,-1.7837603E1,-3.4119647E0,-4.901529E0,1.896386E1,-1.0827466E1,2.4296713E1,5.0035507E1,2.873596E1,7.680784E0,8.529528E-1,-4.6836004E0,-1.8875928E-1,1.1860966E1,1.33414345E1,2.1962936E1,3.010912E1,1.0349417E0,4.485567E0,1.751769E0,1.0138576E1],"categories":[],"categories_nodes":[],"categories_segments":[],"categories_sizes":[],"default_left":[0,0,0,0,0,0,0,0,0,0,0,0,0,0,0,0,0,0,0,0,0,0,0,0,0,0,0,0,0,0,0,0,0],"id":1,"left_children":[1,3,5,-1,7,9,11,13,15,-1,17,-1,19,-1,-1,-1,21,23,25,27,-1,-1,-1,-1,-1,-1,29,-1,31,-1,-1,-1,-1],"loss_changes":[1.5655995E5,1.304732E4,2.5640766E4,0E0,9.527799E3,4.256285E3,5.5788984E3,9.543086E2,1.8673093E3,0E0,2.2891323E3,0E0,2.702211E3,0E0,0E0,0E0,2.4827112E2,1.365589E2,4.742661E2,1.4899551E3,0E0,0E0,0E0,0E0,0E0,0E0,2.806903E1,0E0,3.3943408E2,0E0,0E0,0E0,0E0],"parents":[2147483647,0,0,1,1,2,2,4,4,5,5,6,6,7,7,8,8,10,10,12,12,16,16,17,17,18,18,19,19,26,26,28,28],"right_children":[2,4,6,-1,8,10,12,14,16,-1,18,-1,20,-1,-1,-1,22,24,26,28,-1,-1,-1,-1,-1,-1,30,-1,32,-1,-1,-1,-1],"split_conditions":[1.8939443E-2,-4.2422783E-1,-4.2246357E-1,-2.8469732E1,-4.069567E-1,-1.060966E0,4.1830027E-1,8.558259E-1,-3.9508078E-1,-9.009297E0,2.682801E-1,9.747697E0,-1.0129868E0,-1.7837603E1,-3.4119647E0,-4.901529E0,-3.306644E-1,-6.6560525E-1,-1.8396915E0,-1.072232E0,2.873596E1,7.680784E0,8.529528E-1,-4.6836004E0,-1.8875928E-1,1.1860966E1,-9.8252934E-1,2.1962936E1,-6.798005E-1,1.0349417E0,4.485567E0,1.751769E0,1.0138576E1],"split_indices":[3,1,1,0,3,4,3,4,0,0,3,0,4,0,0,0,0,0,1,0,0,0,0,0,0,0,0,0,0,0,0,0,0],"split_type":[0,0,0,0,0,0,0,0,0,0,0,0,0,0,0,0,0,0,0,0,0,0,0,0,0,0,0,0,0,0,0,0,0],"sum_hessian":[5E1,2.1E1,2.9E1,8E0,1.3E1,9E0,2E1,9E0,4E0,2E0,7E0,6E0,1.4E1,8E0,1E0,2E0,2E0,2E0,5E0,7E0,7E0,1E0,1E0,1E0,1E0,1E0,4E0,2E0,5E0,1E0,3E0,1E0,4E0],"tree_param":{"num_deleted":"0","num_feature":"5","num_nodes":"33","size_leaf_vector":"1"}},{"base_weights":[7.63643E-1,-5.087415E1,3.3013397E1,-7.116561E1,-2.7802443E1,-3.2043967E0,4.962169E1,-7.851895E1,-8.35045E0,-3.1066027E1,7.2500986E-1,-9.52995E0,1.1477203E1,2.6560564E1,5.8612843E1,-6.903856E0,-2.4948254E1,-3.4198753E1,-3.7070239E0,-9.203346E0,1.9904612E1,3.4267163E0,1.0007698E1,7.3212814E0,6.5131294E1,-1.1528014E1,-4.302975E0,-3.9810607E0,-1.6044545E-1,1.0081821E1,1.0443106E1,4.2626675E1,2.4159443E1,8.7970036E-1,3.4763148E0,1.842278E0,1.4305244E1],"categories":[],"categories_nodes":[],"categories_segments":[],"categories_sizes":[],"default_left":[0,0,0,0,0,0,0,0,0,0,0,0,0,0,0,0,0,0,0,0,0,0,0,0,0,0,0,0,0,0,0,0,0,0,0,0,0],"id":2,"left_children":[1,3,5,7,9,11,13,15,-1,17,-1,-1,19,21,23,-1,-1,25,-1,27,29,-1,-1,-1,31,-1,-1,-1,-1,-1,33,35,-1,-1,-1,-1,-1],"loss_changes":[8.661015E4,7.3845938E3,1.9407508E4,1.0006953E3,1.1599268E3,4.977302E3,3.0048242E3,1.4746094E2,0E0,1.6352539E2,0E0,0E0,1.5774564E3,4.422871E2,1.7553203E3,0E0,0E0,1.2042285E2,0E0,9.86638E1,4.2686694E2,0E0,0E0,0E0,7.261094E2,0E0,0E0,0E0,0E0,0E0,9.005371E0,9.988545E2,0E0,0E0,0E0,0E0,0E0],"parents":[2147483647,0,0,1,1,2,2,3,3,4,4,5,5,6,6,7,7,9,9,12,12,13,13,14,14,17,17,19,19,20,20,24,24,30,30,31,31],"right_children":[2,4,6,8,10,12,14,16,-1,18,-1,-1,20,22,24,-1,-1,26,-1,28,30,-1,-1,-1,32,-1,-1,-1,-1,-1,34,36,-1,-1,-1,-1,-1],"split_conditions":[-6.31358E-2,-6.896646E-1,-4.2246357E-1,5.0575334E-1,9.2027044E-1,-1.060966E0,4.1830027E-1,-1.4846925E0,-8.35045E0,3.19054E-1,7.2500986E-1,-9.52995E0,2.682801E-1,4.98394E-1,1.2836567E-1,-6.903856E0,-2.4948254E1,-1.2898076E-1,-3.7070239E0,-6.6560525E-1,-1.8396915E0,3.4267163E0,1.0007698E1,7.3212814E0,-1.0129868E0,-1.1528014E1,-4.302975E0,-3.9810607E0,-1.6044545E-1,1.0081821E1,-9.8252934E-1,5.635933E-1,2.4159443E1,8.7970036E-1,3.4763148E0,1.842278E0,1.4305244E1],"split_indices":[3,3,1,1,2,4,3,0,0,4,0,0,3,1,1,0,0,1,0,0,1,0,0,0,4,0,0,0,0,0,0,3,0,0,0,0,0],"split_type":[0,0,0,0,0,0,0,0,0,0,0,0,0,0,0,0,0,0,0,0,0,0,0,0,0,0,0,0,0,0,0,0,0,0,0,0,0],"sum_hessian":[5E1,1.9E1,3.1E1,9E0,1E1,1E1,2.1E1,7E0,2E0,9E0,1E0,3E0,7E0,7E0,1.4E1,1E0,6E0,7E0,2E0,2E0,5E0,3E0,4E0,3E0,1.1E1,5E0,2E0,1E0,1E0,1E0,4E0,6E0,5E0,1E0,3E0,1E0,5E0],"tree_param":{"num_deleted":"0","num_feature":"5","num_nodes":"37","size_leaf_vector":"1"}},{"base_weights":[5.8971614E-1,-3.5599934E1,2.7109137E1,-5.3836185E1,-1.8833595E1,7.8434596E0,4.1380333E1,-1.7035578E1,-4.0941753E0,-2.5678352E1,1.2541712E1,-1.330092E0,9.332959E0,2.0607235E1,5.083773E1,-4.784706E0,-1.0249125E1,5.027512E0,6.162584E-1,-5.301447E0,4.2648287E0,1.1207017E0,6.8389654E0,3.2145462E1,2.0051807E1,-7.822845E0,8.8359995E0,1.4709299E1,1.5585048E1,-3.3839016E0,-1.3637868E-1,7.477453E-1,2.8433514E0,6.06102E-1,7.1864223E0],"categories":[],"categories_nodes":[],"categories_segments":[],"categories_sizes":[],"default_left":[0,0,0,0,0,0,0,0,0,0,0,0,0,0,0,0,0,0,0,0,0,0,0,0,0,0,0,0,0,0,0,0,0,0,0],"id":3,"left_children":[1,3,5,7,9,11,13,-1,-1,15,17,19,-1,21,23,-1,-1,-1,-1,-1,25,-1,-1,27,-1,29,31,-1,33,-1,-1,-1,-1,-1,-1],"loss_changes":[4.9911242E4,5.7126855E3,7.9237617E3,4.1023828E2,3.1138828E3,3.0294768E3,2.2921855E3,0E0,0E0,3.6325146E2,9.8242035E1,1.081083E3,0E0,1.7339941E2,1.1415938E3,0E0,0E0,0E0,0E0,0E0,5.66416E2,0E0,0E0,1.193269E3,0E0,7.128461E1,4.8771973E0,0E0,5.192656E2,0E0,0E0,0E0,0E0,0E0,0E0],"parents":[2147483647,0,0,1,1,2,2,3,3,4,4,5,5,6,6,9,9,10,10,11,11,13,13,14,14,20,20,23,23,25,25,26,26,28,28],"right_children":[2,4,6,8,10,12,14,-1,-1,16,18,20,-1,22,24,-1,-1,-1,-1,-1,26,-1,-1,28,-1,30,32,-1,34,-1,-1,-1,-1,-1,-1],"split_conditions":[1.8939443E-2,-6.896646E-1,1.2836567E-1,1.2254162E0,9.2027044E-1,1.1783963E0,4.330615E-1,-1.7035578E1,-4.0941753E0,-2.7019224E-1,-3.306644E-1,-1.6238828E0,9.332959E0,-8.037429E-1,-1.0129868E0,-4.784706E0,-1.0249125E1,5.027512E0,6.162584E-1,-5.301447E0,2.682801E-1,1.1207017E0,6.8389654E0,-1.072232E0,2.0051807E1,-6.6560525E-1,-9.8252934E-1,1.4709299E1,7.073325E-1,-3.3839016E0,-1.3637868E-1,7.477453E-1,2.8433514E0,6.06102E-1,7.1864223E0],"split_indices":[3,3,1,1,2,3,3,0,0,0,0,1,0,0,4,0,0,0,0,0,3,0,0,0,0,0,0,0,1,0,0,0,0,0,0],"split_type":[0,0,0,0,0,0,0,0,0,0,0,0,0,0,0,0,0,0,0,0,0,0,0,0,0,0,0,0,0,0,0,0,0,0,0],"sum_hessian":[5E1,2.1E1,2.9E1,9E0,1.2E1,1.3E1,1.6E1,8E0,1E0,1E1,2E0,1E1,3E0,6E0,1E1,6E0,4E0,1E0,1E0,2E0,8E0,1E0,5E0,6E0,4E0,2E0,6E0,2E0,4E0,1E0,1E0,1E0,5E0,2E0,2E0],"tree_param":{"num_deleted":"0","num_feature":"5","num_nodes":"35","size_leaf_vector":"1"}},{"base_weights":[8.852681E-1,-2.8601776E1,1.9287006E1,-1.6283375E1,-1.8790373E1,-1.6496301E0,2.8878641E1,-2.18501E1,-4.148662E0,-5.8218093E0,7.434774E0,1.6353556E1,3.486772E1,-7.039651E0,-2.5930789E0,-2.008678E0,5.2381957E-1,-6.6494184E0,1.3237741E1,1.8454789E0,6.1287813E0,1.353599E1,3.9454926E1,-2.8763163E0,-1.1592193E-1,7.169605E0,1.897745E0,4.8643208E0,8.2511336E-1,2.571637E1,1.5239375E1,1.1767439E1,3.7404118E0],"categories":[],"categories_nodes":[],"categories_segments":[],"categories_sizes":[],"default_left":[0,0,0,0,0,0,0,0,0,0,0,0,0,0,0,0,0,0,0,0,0,0,0,0,0,0,0,0,0,0,0,0,0],"id":4,"left_children":[1,3,5,-1,7,9,11,13,15,-1,17,19,21,-1,-1,-1,-1,23,25,-1,-1,27,29,-1,-1,-1,-1,-1,-1,31,-1,-1,-1],"loss_changes":[2.8224898E4,4.0184775E3,6.4737695E3,0E0,6.261455E2,1.9186489E3,1.0800918E3,7.451367E1,7.174479E1,0E0,7.4186414E2,2.4854956E2,8.3588086E2,0E0,0E0,0E0,0E0,5.1503113E1,2.9094702E2,0E0,0E0,7.095752E1,4.0786133E2,0E0,0E0,0E0,0E0,0E0,0E0,7.636929E2,0E0,0E0,0E0],"parents":[2147483647,0,0,1,1,2,2,4,4,5,5,6,6,7,7,8,8,10,10,11,11,12,12,17,17,18,18,21,21,22,22,29,29],"right_children":[2,4,6,-1,8,10,12,14,16,-1,18,20,22,-1,-1,-1,-1,24,26,-1,-1,28,30,-1,-1,-1,-1,-1,-1,32,-1,-1,-1],"split_conditions":[-6.31358E-2,-7.733028E-1,-4.2246357E-1,-1.6283375E1,8.558259E-1,-1.060966E0,4.330615E-1,-9.202229E-2,-3.6066335E-1,-5.8218093E0,2.682801E-1,4.98394E-1,1.2836567E-1,-7.039651E0,-2.5930789E0,-2.008678E0,5.2381957E-1,-6.6560525E-1,-1.8396915E0,1.8454789E0,6.1287813E0,-3.803699E-1,-1.0129868E0,-2.8763163E0,-1.1592193E-1,7.169605E0,1.897745E0,4.8643208E0,8.2511336E-1,-1.072232E0,1.5239375E1,1.1767439E1,3.7404118E0],"split_indices":[3,1,1,0,4,4,3,3,0,0,3,1,1,0,0,0,0,0,1,0,0,0,4,0,0,0,0,0,0,0,0,0,0],"split_type":[0,0,0,0,0,0,0,0,0,0,0,0,0,0,0,0,0,0,0,0,0,0,0,0,0,0,0,0,0,0,0,0,0],"sum_hessian":[5E1,1.9E1,3.1E1,4E0,1.5E1,1E1,2.1E1,1.2E1,3E0,3E0,7E0,8E0,1.3E1,1E1,2E0,2E0,1E0,2E0,5E0,3E0,5E0,3E0,1E1,1E0,1E0,1E0,4E0,2E0,1E0,6E0,4E0,2E0,4E0],"tree_param":{"num_deleted":"0","num_feature":"5","num_nodes":"33","size_leaf_vector":"1"}},{"base_weights":[9.58183E-1,-1.9766186E1,1.6124115E1,-3.9274464E1,-1.1718194E1,4.888877E0,2.4428185E1,-5.2243333E0,-1.37552595E1,-1.384811E1,3.3540683E0,-1.0089135E0,5.965675E0,1.1532719E1,3.0413647E1,-1.6036049E1,-3.2752779E0,-3.0767958E0,2.1855452E0,1.1157776E0,4.1742754E0,1.0096665E1,3.380668E1,-3.3135545E0,-6.00536E0,-1.6069424E0,4.4524673E-1,-5.6520057E0,5.2322745E0,5.852259E0,-1.3087596E0,1.5269916E1,2.165157E1,-2.444869E0,-9.853364E-2,3.5092163E-1,1.7143223E0,9.1395956E-1,7.2733965E0],"categories":[],"categories_nodes":[],"categories_segments":[],"categories_sizes":[],"default_left":[0,0,0,0,0,0,0,0,0,0,0,0,0,0,0,0,0,0,0,0,0,0,0,0,0,0,0,0,0,0,0,0,0,0,0,0,0,0,0],"id":5,"left_children":[1,3,5,7,9,11,13,-1,-1,15,-1,17,-1,19,21,23,25,-1,27,-1,-1,29,31,-1,-1,-1,-1,33,35,-1,-1,-1,37,-1,-1,-1,-1,-1,-1],"loss_changes":[1.6348234E4,2.9938281E3,2.67952E3,6.409473E1,9.8394385E2,1.2583268E3,9.6139844E2,0E0,0E0,3.1760083E2,0E0,3.473482E2,0E0,7.850537E1,4.1696387E2,3.7244385E1,4.7571102E1,0E0,2.4448291E2,0E0,0E0,4.9332285E2,7.678496E2,0E0,0E0,0E0,0E0,3.7211006E1,7.0263977E0,0E0,0E0,0E0,2.6384912E2,0E0,0E0,0E0,0E0,0E0,0E0],"parents":[2147483647,0,0,1,1,2,2,3,3,4,4,5,5,6,6,9,9,11,11,13,13,14,14,15,15,16,16,18,18,21,21,22,22,27,27,28,28,32,32],"right_children":[2,4,6,8,10,12,14,-1,-1,16,-1,18,-1,20,22,24,26,-1,28,-1,-1,30,32,-1,-1,-1,-1,34,36,-1,-1,-1,38,-1,-1,-1,-1,-1,-1],"split_conditions":[1.8939443E-2,-7.733028E-1,1.2836567E-1,9.2027044E-1,-6.31358E-2,1.1783963E0,4.330615E-1,-5.2243333E0,-1.37552595E1,8.558259E-1,3.3540683E0,-1.6238828E0,5.965675E0,4.98394E-1,-1.0030569E0,-1.8938218E-1,-3.6066335E-1,-3.0767958E0,2.682801E-1,1.1157776E0,4.1742754E0,-1.9072564E0,-1.0891971E-1,-3.3135545E0,-6.00536E0,-1.6069424E0,4.4524673E-1,-6.6560525E-1,-9.8252934E-1,5.852259E0,-1.3087596E0,1.5269916E1,5.635933E-1,-2.444869E0,-9.853364E-2,3.5092163E-1,1.7143223E0,9.1395956E-1,7.2733965E0],"split_indices":[3,1,1,2,3,3,3,0,0,4,0,1,0,1,2,0,0,0,3,0,0,0,0,0,0,0,0,0,0,0,0,0,3,0,0,0,0,0,0],"split_type":[0,0,0,0,0,0,0,0,0,0,0,0,0,0,0,0,0,0,0,0,0,0,0,0,0,0,0,0,0,0,0,0,0,0,0,0,0,0,0],"sum_hessian":[5E1,2.1E1,2.9E1,5E0,1.6E1,1.3E1,1.6E1,2E0,3E0,1.5E1,1E0,1E1,3E0,6E0,1E1,1.2E1,3E0,2E0,8E0,2E0,4E0,2E0,8E0,7E0,5E0,2E0,1E0,2E0,6E0,1E0,1E0,2E0,6E0,1E0,1E0,1E0,5E0,1E0,5E0],"tree_param":{"num_deleted":"0","num_feature":"5","num_nodes":"39","size_leaf_vector":"1"}},{"base_weights":[8.588737E-1,-1.5022973E1,1.2476932E1,-9.196618E0,-8.621944E0,8.159441E0,2.8386988E1,-1.0348715E1,2.8509579E0,1.8041499E0,2.4243883E1,3.4459054E0,1.0189716E1,-1.1942074E1,-2.5831187E0,-7.181821E0,4.679197E0,7.8978987E0,1.7623821E0,-2.4437466E0,-4.5040197E0,-1.2855539E0,3.7845957E-1,9.29678E-1,-3.158022E0,1.9980145E-1,5.7823954E0,7.703293E-1,-4.3363228E-1,6.51257E-1,2.0235107E0],"categories":[],"categories_nodes":[],"categories_segments":[],"categories_sizes":[],"default_left":[0,0,0,0,0,0,0,0,0,0,0,0,0,0,0,0,0,0,0,0,0,0,0,0,0,0,0,0,0,0,0],"id":6,"left_children":[1,3,5,-1,7,9,11,13,-1,15,17,-1,-1,19,21,23,25,-1,-1,-1,-1,-1,-1,-1,-1,27,29,-1,-1,-1,-1],"loss_changes":[9.597768E3,1.9370889E3,1.8291235E3,0E0,6.30411E2,2.511793E3,1.7556201E2,1.6712646E2,0E0,5.244718E2,1.13114746E2,0E0,0E0,2.9277344E1,3.1581205E1,2.0456287E2,7.2969604E1,0E0,0E0,0E0,0E0,0E0,0E0,0E0,0E0,1.9295042E1,2.7076843E1,0E0,0E0,0E0,0E0],"parents":[2147483647,0,0,1,1,2,2,4,4,5,5,6,6,7,7,9,9,10,10,13,13,14,14,15,15,16,16,25,25,26,26],"right_children":[2,4,6,-1,8,10,12,14,-1,16,18,-1,-1,20,22,24,26,-1,-1,-1,-1,-1,-1,-1,-1,28,30,-1,-1,-1,-1],"split_conditions":[1.8939443E-2,-7.733028E-1,1.3343052E0,-9.196618E0,-6.31358E-2,1.1783963E0,-3.7942225E-1,8.558259E-1,2.8509579E0,-1.0030569E0,1.2018492E0,3.4459054E0,1.0189716E1,-1.8938218E-1,-3.6066335E-1,-1.5897759E0,-7.7166045E-1,7.8978987E0,1.7623821E0,-2.4437466E0,-4.5040197E0,-1.2855539E0,3.7845957E-1,9.29678E-1,-3.158022E0,-5.712549E-1,-5.776155E-1,7.703293E-1,-4.3363228E-1,6.51257E-1,2.0235107E0],"split_indices":[3,1,1,0,3,3,0,4,0,2,4,0,0,0,0,2,1,0,0,0,0,0,0,0,0,0,0,0,0,0,0],"split_type":[0,0,0,0,0,0,0,0,0,0,0,0,0,0,0,0,0,0,0,0,0,0,0,0,0,0,0,0,0,0,0],"sum_hessian":[5E1,2.1E1,2.9E1,5E0,1.6E1,2.4E1,5E0,1.5E1,1E0,1.8E1,6E0,2E0,3E0,1.2E1,3E0,4E0,1.4E1,5E0,1E0,7E0,5E0,2E0,1E0,1E0,3E0,3E0,1.1E1,1E0,2E0,3E0,8E0],"tree_param":{"num_deleted":"0","num_feature":"5","num_nodes":"31","size_leaf_vector":"1"}},{"base_weights":[7.9490757E-1,-1.2336997E1,8.977507E0,-2.4595896E1,-7.7350283E0,6.940811E0,1.0817261E1,-1.2647462E0,-8.591088E0,-6.140326E0,-4.748335E0,3.4683938E0,1.8350758E1,-6.997089E0,-2.0349567E0,-1.3131777E0,1.0772069E1,5.923424E0,1.4980248E0,-3.3503227E0,-7.8404193E0,-1.0284431E0,3.2169056E-1,-8.998125E0,1.1524352E0,3.4127302E0,8.008187E-1,-1.3732629E0,4.9700547E-2,-2.4947019E0,-6.0575867E-1,-5.016501E-1,-3.2648168E0,-1.082096E0,7.0370775E-1],"categories":[],"categories_nodes":[],"categories_segments":[],"categories_sizes":[],"default_left":[0,0,0,0,0,0,0,0,0,0,0,0,0,0,0,0,0,0,0,0,0,0,0,0,0,0,0,0,0,0,0,0,0,0,0],"id":7,"left_children":[1,3,5,7,9,11,-1,-1,-1,13,-1,15,17,19,21,23,25,-1,-1,27,29,-1,-1,31,33,-1,-1,-1,-1,-1,-1,-1,-1,-1,-1],"loss_changes":[5.5908643E3,9.380513E2,1.5146523E3,2.9105762E2,1.0930078E2,1.1645753E3,0E0,0E0,0E0,3.852118E1,0E0,8.872218E2,3.1746094E1,1.0637146E1,2.0991972E1,3.1353943E2,1.8549072E1,0E0,0E0,1.8017933E1,8.108032E0,0E0,0E0,3.70282E1,8.2290665E1,0E0,0E0,0E0,0E0,0E0,0E0,0E0,0E0,0E0,0E0],"parents":[2147483647,0,0,1,1,2,2,3,3,4,4,5,5,9,9,11,11,12,12,13,13,14,14,15,15,16,16,19,19,20,20,23,23,24,24],"right_children":[2,4,6,8,10,12,-1,-1,-1,14,-1,16,18,20,22,24,26,-1,-1,28,30,-1,-1,32,34,-1,-1,-1,-1,-1,-1,-1,-1,-1,-1],"split_conditions":[-6.31358E-2,-7.733028E-1,4.1499286E0,9.2027044E-1,1.4553685E0,1.1783963E0,1.0817261E1,-1.2647462E0,-8.591088E0,8.558259E-1,-4.748335E0,7.073325E-1,1.2018492E0,-4.8868355E-1,-3.6066335E-1,-1.6238828E0,1.0557555E0,5.923424E0,1.4980248E0,4.6433097E-1,-9.202229E-2,-1.0284431E0,3.2169056E-1,-3.5330725E-1,2.682801E-1,3.4127302E0,8.008187E-1,-1.3732629E0,4.9700547E-2,-2.4947019E0,-6.0575867E-1,-5.016501E-1,-3.2648168E0,-1.082096E0,7.0370775E-1],"split_indices":[3,1,1,2,0,3,0,0,0,4,0,1,4,2,0,1,2,0,0,1,3,0,0,0,3,0,0,0,0,0,0,0,0,0,0],"split_type":[0,0,0,0,0,0,0,0,0,0,0,0,0,0,0,0,0,0,0,0,0,0,0,0,0,0,0,0,0,0,0,0,0,0,0],"sum_hessian":[5E1,1.9E1,3.1E1,4E0,1.5E1,3E1,1E0,1E0,3E0,1.4E1,1E0,2.4E1,6E0,1.1E1,3E0,1.5E1,9E0,5E0,1E0,3E0,8E0,2E0,1E0,3E0,1.2E1,8E0,1E0,2E0,1E0,7E0,1E0,1E0,2E0,2E0,1E1],"tree_param":{"num_deleted":"0","num_feature":"5","num_nodes":"35","size_leaf_vector":"1"}},{"base_weights":[5.284452E-1,-9.6226425E0,6.8563614E0,-8.516293E0,-7.140925E0,5.100186E0,9.194672E0,-5.041225E0,-1.3754494E1,2.4306233E0,1.3905739E1,-5.775206E0,-1.3954792E0,-4.76349E0,-1.1074609E0,-1.178278E0,7.961803E0,7.3107452E0,5.1072893E0,-3.155336E0,-7.018208E0,-7.404831E-1,2.7343714E-1,-7.2403045E0,7.775977E-1,1.1868206E0,2.9918845E0,2.901224E0,3.3004963E0,-1.152819E0,4.2245295E-2,-2.25913E0,-5.148949E-1,-4.264026E-1,-2.6118534E0,-7.144866E-1,7.33896E-1,2.1190225E-1,1.2733212E0],"categories":[],"categories_nodes":[],"categories_segments":[],"categories_sizes":[],"default_left":[0,0,0,0,0,0,0,0,0,0,0,0,0,0,0,0,0,0,0,0,0,0,0,0,0,0,0,0,0,0,0,0,0,0,0,0,0,0,0],"id":8,"left_children":[1,3,5,-1,7,9,-1,11,13,15,17,19,21,-1,-1,23,25,27,-1,29,31,-1,-1,33,35,-1,-1,-1,37,-1,-1,-1,-1,-1,-1,-1,-1,-1,-1],"loss_changes":[3.3419731E3,7.286748E2,1.180769E3,0E0,1.9450415E2,6.9491656E2,0E0,3.475537E1,2.6871826E1,5.0841827E2,1.9507812E1,2.0189758E1,1.2149234E1,0E0,0E0,1.9533516E2,4.1107483E1,5.938492E0,0E0,1.4135662E1,8.801483E0,0E0,0E0,2.174498E1,7.436039E1,0E0,0E0,0E0,4.347931E0,0E0,0E0,0E0,0E0,0E0,0E0,0E0,0E0,0E0,0E0],"parents":[2147483647,0,0,1,1,2,2,4,4,5,5,7,7,8,8,9,9,10,10,11,11,12,12,15,15,16,16,17,17,19,19,20,20,23,23,24,24,28,28],"right_children":[2,4,6,-1,8,10,-1,12,14,16,18,20,22,-1,-1,24,26,28,-1,30,32,-1,-1,34,36,-1,-1,-1,38,-1,-1,-1,-1,-1,-1,-1,-1,-1,-1],"split_conditions":[-6.31358E-2,-1.8197519E0,4.1499286E0,-8.516293E0,4.0763727E-1,1.1783963E0,9.194672E0,-1.079456E-1,-9.7637886E-1,7.073325E-1,-9.562537E-1,-1.8705013E-1,-5.8485746E-1,-4.76349E0,-1.1074609E0,-1.6238828E0,1.3343052E0,-1.9072564E0,5.1072893E0,7.9444146E-1,-9.202229E-2,-7.404831E-1,2.7343714E-1,-3.5330725E-1,-6.6560525E-1,1.1868206E0,2.9918845E0,2.901224E0,-6.799234E-1,-1.152819E0,4.2245295E-2,-2.25913E0,-5.148949E-1,-4.264026E-1,-2.6118534E0,-7.144866E-1,7.33896E-1,2.1190225E-1,1.2733212E0],"split_indices":[3,1,1,0,0,3,0,0,3,1,2,2,3,0,0,1,1,0,0,1,3,0,0,0,0,0,0,0,0,0,0,0,0,0,0,0,0,0,0],"split_type":[0,0,0,0,0,0,0,0,0,0,0,0,0,0,0,0,0,0,0,0,0,0,0,0,0,0,0,0,0,0,0,0,0,0,0,0,0,0,0],"sum_hessian":[5E1,1.9E1,3.1E1,1E0,1.8E1,3E1,1E0,1.5E1,3E0,2.4E1,6E0,1.2E1,3E0,2E0,1E0,1.5E1,9E0,3E0,3E0,5E0,7E0,2E0,1E0,3E0,1.2E1,4E0,5E0,1E0,2E0,4E0,1E0,6E0,1E0,1E0,2E0,4E0,8E0,1E0,1E0],"tree_param":{"num_deleted":"0","num_feature":"5","num_nodes":"39","size_leaf_vector":"1"}},{"base_weights":[3.9166474E-1,-7.672794E0,5.419712E0,-7.238848E0,-5.536679E0,3.913795E0,7.81547E0,-3.8008347E0,-1.1095884E1,1.7478316E0,3.3270798E0,-4.3416095E0,-1.0931075E0,-3.8107927E0,-9.413418E-1,-1.0134718E0,5.9911337E0,-4.934149E0,-1.7748594E0,-5.921907E-1,2.324215E-1,-4.6764007E0,1.0766231E0,9.0198404E-1,2.2439137E0,-1.6409323E0,-5.583294E-1,3.59087E-2,-7.3388296E-1,-5.372684E-1,-2.0894825E0,-8.676176E-1,6.839677E-1],"categories":[],"categories_nodes":[],"categories_segments":[],"categories_sizes":[],"default_left":[0,0,0,0,0,0,0,0,0,0,0,0,0,0,0,0,0,0,0,0,0,0,0,0,0,0,0,0,0,0,0,0,0],"id":9,"left_children":[1,3,5,-1,7,9,-1,11,13,15,-1,17,19,-1,-1,21,23,25,27,-1,-1,29,31,-1,-1,-1,-1,-1,-1,-1,-1,-1,-1],"loss_changes":[2.1095566E3,5.6947107E2,8.9227496E2,0E0,1.4117468E2,4.6247925E2,0E0,1.8682495E1,1.1288361E1,2.9899792E2,0E0,1.1014282E1,8.110561E0,0E0,0E0,1.2752861E2,2.1938354E1,6.280243E0,5.380953E0,0E0,0E0,2.7148117E1,5.9122894E1,0E0,0E0,0E0,0E0,0E0,0E0,0E0,0E0,0E0,0E0],"parents":[2147483647,0,0,1,1,2,2,4,4,5,5,7,7,8,8,9,9,11,11,12,12,15,15,16,16,17,17,18,18,21,21,22,22],"right_children":[2,4,6,-1,8,10,-1,12,14,16,-1,18,20,-1,-1,22,24,26,28,-1,-1,30,32,-1,-1,-1,-1,-1,-1,-1,-1,-1,-1],"split_conditions":[-6.31358E-2,-1.8197519E0,4.1499286E0,-7.238848E0,4.0763727E-1,1.1783963E0,7.81547E0,8.558259E-1,-9.7637886E-1,7.073325E-1,3.3270798E0,4.6433097E-1,-3.6066335E-1,-3.8107927E0,-9.413418E-1,-1.060966E0,1.3343052E0,-9.202229E-2,8.133191E-1,-5.921907E-1,2.324215E-1,8.374005E-2,2.682801E-1,9.0198404E-1,2.2439137E0,-1.6409323E0,-5.583294E-1,3.59087E-2,-7.3388296E-1,-5.372684E-1,-2.0894825E0,-8.676176E-1,6.839677E-1],"split_indices":[3,1,1,0,0,3,0,4,3,1,0,1,0,0,0,4,1,3,1,0,0,0,3,0,0,0,0,0,0,0,0,0,0],"split_type":[0,0,0,0,0,0,0,0,0,0,0,0,0,0,0,0,0,0,0,0,0,0,0,0,0,0,0,0,0,0,0,0,0],"sum_hessian":[5E1,1.9E1,3.1E1,1E0,1.8E1,3E1,1E0,1.5E1,3E0,2.4E1,6E0,1.2E1,3E0,2E0,1E0,1.5E1,9E0,9E0,3E0,2E0,1E0,5E0,1E1,4E0,5E0,7E0,2E0,1E0,2E0,3E0,2E0,2E0,8E0],"tree_param":{"num_deleted":"0","num_feature":"5","num_nodes":"33","size_leaf_vector":"1"}}]},"name":"gbtree"},"learner_model_param":{"base_score":"1.3054601E1","boost_from_average":"1","num_class":"0","num_feature":"5","num_target":"1"},"objective":{"name":"reg:squarederror","reg_loss_param":{"scale_pos_weight":"1"}}},"version":[3,0,2]}