{"learner":{"attributes":{},"feature_names":[],"feature_types":[],"gradient_booster":{"model":{"cats":{"enc":[],"feature_segments":[],"sorted_idx":[]},"gbtree_model_param":{"num_parallel_tree":"1","num_trees":"10"},"iteration_indptr":[0,1,2,3,4,5,6,7,8,9,10],"tree_info":[0,0,0,0,0,0,0,0,0,0],"trees":[{"base_weights":[-3.5529044E-7,-6.681233E1,2.4615068E1,-9.1089226E1,1.665222E1,-1.548392E1,6.1478355E1,-3.199988E0,-2.9419449E1,5.7179375E0,1.4144257E0,-3.8058044E1,2.865144E1,3.0805326E1,1.0363723E2,-5.550044E1,9.498787E-1,-9.615717E-1,4.0688957E1,-5.228858E0,4.213847E1,3.5338863E1,6.786584E-1,-4.042615E0,-6.558254E1,3.6092417E0,-3.1343026E0,5.278768E-1,-9.6058404E-1,2.1859157E0,1.4165401E1,-4.13873E0,2.2253673E0,4.6413506E1,5.007663E0,-2.5321869E1,-9.108968E0,-9.75214E-2,1.0989367E0,1.4892521E1,3.5723858E0],"categories":[],"categories_nodes":[],"categories_segments":[],"categories_sizes":[],"default_left":[0,0,0,0,0,0,0,0,0,0,0,0,0,0,0,0,0,0,0,0,0,0,0,0,0,0,0,0,0,0,0,0,0,0,0,0,0,0,0,0,0],"id":0,"left_children":[1,3,5,7,9,11,13,-1,-1,-1,-1,15,17,19,21,23,25,27,29,31,33,-1,-1,-1,35,-1,-1,-1,-1,-1,-1,-1,37,39,-1,-1,-1,-1,-1,-1,-1],"loss_changes":[8.551869E4,2.988448E4,5.712279E4,5.1249375E3,2.5098999E1,2.0020441E4,2.2670219E4,0E0,0E0,0E0,0E0,8.897811E3,2.5343945E3,5.5292803E3,1.1216461E4,2.9295586E3,7.571712E2,2.3923374E1,7.463867E2,2.861393E2,3.1309375E2,0E0,0E0,0E0,2.0778555E3,0E0,0E0,0E0,0E0,0E0,0E0,0E0,1.2191491E1,3.000039E2,0E0,0E0,0E0,0E0,0E0,0E0,0E0],"parents":[2147483647,0,0,1,1,2,2,3,3,4,4,5,5,6,6,11,11,12,12,13,13,14,14,15,15,16,16,17,17,18,18,19,19,20,20,24,24,32,32,33,33],"right_children":[2,4,6,8,10,12,14,-1,-1,-1,-1,16,18,20,22,24,26,28,30,32,34,-1,-1,-1,36,-1,-1,-1,-1,-1,-1,-1,38,40,-1,-1,-1,-1,-1,-1,-1],"split_conditions":[-3.6492774E-1,1.0983216E0,-7.61201E-2,-1.7998364E0,9.7285205E-1,6.1402774E-1,9.144909E-1,-3.199988E0,-2.9419449E1,5.7179375E0,1.4144257E0,7.621396E-1,-1.2860527E0,-7.8681487E-1,1.8130425E0,5.4289106E-2,-1.0268222E0,-8.339775E-1,7.129903E-1,-9.07771E-1,6.656138E-1,3.5338863E1,6.786584E-1,-4.042615E0,-3.724176E-1,3.6092417E0,-3.1343026E0,5.278768E-1,-9.6058404E-1,2.1859157E0,1.4165401E1,-4.13873E0,1.5153915E-1,1.2867869E0,5.007663E0,-2.5321869E1,-9.108968E0,-9.75214E-2,1.0989367E0,1.4892521E1,3.5723858E0],"split_indices":[1,4,2,1,0,3,0,0,0,0,0,0,2,4,0,1,3,0,3,0,2,0,0,0,0,0,0,0,0,0,0,0,0,3,0,0,0,0,0,0,0],"split_type":[0,0,0,0,0,0,0,0,0,0,0,0,0,0,0,0,0,0,0,0,0,0,0,0,0,0,0,0,0,0,0,0,0,0,0,0,0,0,0,0,0],"sum_hessian":[5E1,1.3E1,3.7E1,1E1,3E0,1.8E1,1.9E1,1E0,9E0,2E0,1E0,1.2E1,6E0,1.2E1,7E0,8E0,4E0,2E0,4E0,3E0,9E0,6E0,1E0,2E0,6E0,2E0,2E0,1E0,1E0,1E0,3E0,1E0,2E0,7E0,2E0,3E0,3E0,1E0,1E0,6E0,1E0],"tree_param":{"num_deleted":"0","num_feature":"5","num_nodes":"41","size_leaf_vector":"1"}},{"base_weights":[1.7227083E-1,-4.8589134E1,1.8132465E1,-6.672786E1,1.3439645E1,-1.2000843E1,4.5852486E1,-2.7199898E0,-7.158732E1,4.5743504E0,1.2022619E0,-2.9563591E1,2.2330095E1,2.4619226E1,8.1768654E1,-2.6411673E1,-1.3783936E1,-4.3125134E1,7.5990295E-1,-8.173354E-1,3.1752533E1,-3.5179205E0,2.8317074E1,9.4755806E1,5.768598E-1,-3.234092E0,-5.082647E1,2.8873935E0,-2.507442E0,4.486954E-1,-8.164964E-1,1.8580285E0,1.0978186E1,1.2420035E1,3.1844183E1,6.847121E0,3.1373241E1,-1.835232E1,-4.991329E0,5.6746864E-1,6.6008186E0,1.0074432E1,2.4313328E0],"categories":[],"categories_nodes":[],"categories_segments":[],"categories_sizes":[],"default_left":[0,0,0,0,0,0,0,0,0,0,0,0,0,0,0,0,0,0,0,0,0,0,0,0,0,0,0,0,0,0,0,0,0,0,0,0,0,0,0,0,0,0,0],"id":1,"left_children":[1,3,5,7,9,11,13,-1,15,-1,-1,17,19,21,23,-1,-1,25,27,29,31,-1,33,35,-1,-1,37,-1,-1,-1,-1,-1,-1,39,41,-1,-1,-1,-1,-1,-1,-1,-1],"loss_changes":[4.5545023E4,1.6648523E4,3.2291512E4,2.433168E3,7.1137695E0,1.2116124E4,1.3239266E4,0E0,1.7325E2,0E0,0E0,5.3788037E3,1.5526887E3,2.213665E3,7.076582E3,0E0,0E0,1.693959E3,4.8458957E2,1.728464E1,3.920703E2,0E0,3.334121E2,1.8521133E3,0E0,0E0,1.4586719E3,0E0,0E0,0E0,0E0,0E0,0E0,3.6194495E2,1.4026172E2,0E0,0E0,0E0,0E0,0E0,0E0,0E0,0E0],"parents":[2147483647,0,0,1,1,2,2,3,3,4,4,5,5,6,6,8,8,11,11,12,12,13,13,14,14,17,17,18,18,19,19,20,20,22,22,23,23,26,26,33,33,34,34],"right_children":[2,4,6,8,10,12,14,-1,16,-1,-1,18,20,22,24,-1,-1,26,28,30,32,-1,34,36,-1,-1,38,-1,-1,-1,-1,-1,-1,40,42,-1,-1,-1,-1,-1,-1,-1,-1],"split_conditions":[-3.6492774E-1,1.0983216E0,-7.61201E-2,-1.7998364E0,9.7285205E-1,6.1402774E-1,1.0166643E0,-2.7199898E0,-4.0878463E-1,4.5743504E0,1.2022619E0,7.621396E-1,-1.2860527E0,-9.07771E-1,1.8130425E0,-2.6411673E1,-1.3783936E1,5.4289106E-2,-1.0268222E0,-8.339775E-1,7.129903E-1,-3.5179205E0,-7.8681487E-1,1.1160764E-1,5.768598E-1,-3.234092E0,-1.12825535E-1,2.8873935E0,-2.507442E0,4.486954E-1,-8.164964E-1,1.8580285E0,1.0978186E1,3.094538E-1,5.785055E-1,6.847121E0,3.1373241E1,-1.835232E1,-4.991329E0,5.6746864E-1,6.6008186E0,1.0074432E1,2.4313328E0],"split_indices":[1,4,2,1,0,3,0,0,4,0,0,0,2,0,0,0,0,1,3,0,3,0,4,2,0,0,0,0,0,0,0,0,0,0,0,0,0,0,0,0,0,0,0],"split_type":[0,0,0,0,0,0,0,0,0,0,0,0,0,0,0,0,0,0,0,0,0,0,0,0,0,0,0,0,0,0,0,0,0,0,0,0,0,0,0,0,0,0,0],"sum_hessian":[5E1,1.3E1,3.7E1,1E1,3E0,1.8E1,1.9E1,1E0,9E0,2E0,1E0,1.2E1,6E0,1.3E1,6E0,4E0,5E0,8E0,4E0,2E0,4E0,1E0,1.2E1,5E0,1E0,2E0,6E0,2E0,2E0,1E0,1E0,1E0,3E0,3E0,9E0,1E0,4E0,4E0,2E0,2E0,1E0,8E0,1E0],"tree_param":{"num_deleted":"0","num_feature":"5","num_nodes":"43","size_leaf_vector":"1"}},{"base_weights":[2.0068772E-1,-3.6665176E1,1.3777567E1,-5.0610916E1,3.2555714E0,-2.0504494E1,2.850376E1,-2.3083855E1,-3.620906E1,-3.7359356E1,-3.1282568E0,1.5414415E1,5.2969734E1,-2.3119912E0,-1.164256E1,-4.533975E1,3.8139096E-1,-8.181971E0,1.9012054E0,8.101925E0,1.2243232E1,6.4960594E1,7.3344746E0,-1.5495176E1,-3.0144603E0,-6.9402194E-1,-2.7212281E0,-2.7389657E0,2.662657E1,5.732978E0,2.3843666E1,2.810183E0,4.9033073E-1,-2.688901E0,6.294167E-1,2.9137235E0,9.796665E0],"categories":[],"categories_nodes":[],"categories_segments":[],"categories_sizes":[],"default_left":[0,0,0,0,0,0,0,0,0,0,0,0,0,0,0,0,0,0,0,0,0,0,0,0,0,0,0,0,0,0,0,0,0,0,0,0,0],"id":2,"left_children":[1,3,5,7,-1,9,11,-1,13,15,17,19,21,-1,-1,23,-1,25,-1,27,-1,29,31,-1,-1,-1,-1,33,35,-1,-1,-1,-1,-1,-1,-1,-1],"loss_changes":[2.6031848E4,9.826477E3,1.9768535E4,1.3858945E3,0E0,3.3976196E3,7.830078E3,0E0,3.6773828E2,1.9073672E3,3.8670734E2,3.1978564E3,4.4484043E3,0E0,0E0,5.946006E2,0E0,5.0952454E0,0E0,3.2861077E3,0E0,3.140873E3,1.9450928E1,0E0,0E0,0E0,0E0,3.499687E2,2.9468652E2,0E0,0E0,0E0,0E0,0E0,0E0,0E0,0E0],"parents":[2147483647,0,0,1,1,2,2,3,3,5,5,6,6,8,8,9,9,10,10,11,11,12,12,15,15,17,17,19,19,21,21,22,22,27,27,28,28],"right_children":[2,4,6,8,-1,10,12,-1,14,16,18,20,22,-1,-1,24,-1,26,-1,28,-1,30,32,-1,-1,-1,-1,34,36,-1,-1,-1,-1,-1,-1,-1,-1],"split_conditions":[-3.6492774E-1,1.0983216E0,-5.197073E-1,-1.6350517E0,3.2555714E0,-1.02358386E-1,1.1665952E0,-2.3083855E1,-1.7998364E0,4.408356E-1,8.071671E-2,6.932973E-1,1.8130425E0,-2.3119912E0,-1.164256E1,-3.724176E-1,3.8139096E-1,-2.6149747E-1,1.9012054E0,5.0332755E-1,1.2243232E1,1.1160764E-1,1.997704E0,-1.5495176E1,-3.0144603E0,-6.9402194E-1,-2.7212281E0,-7.61201E-2,8.966568E-1,5.732978E0,2.3843666E1,2.810183E0,4.9033073E-1,-2.688901E0,6.294167E-1,2.9137235E0,9.796665E0],"split_indices":[1,4,2,4,0,4,0,0,1,1,1,4,0,0,0,0,0,1,0,1,0,2,0,0,0,0,0,2,1,0,0,0,0,0,0,0,0],"split_type":[0,0,0,0,0,0,0,0,0,0,0,0,0,0,0,0,0,0,0,0,0,0,0,0,0,0,0,0,0,0,0,0,0,0,0,0,0],"sum_hessian":[5E1,1.3E1,3.7E1,1E1,3E0,1.1E1,2.6E1,2E0,8E0,5E0,6E0,1.8E1,8E0,1E0,7E0,4E0,1E0,4E0,2E0,1.5E1,3E0,6E0,2E0,3E0,1E0,1E0,3E0,1E1,5E0,2E0,4E0,1E0,1E0,4E0,6E0,2E0,3E0],"tree_param":{"num_deleted":"0","num_feature":"5","num_nodes":"37","size_leaf_vector":"1"}},{"base_weights":[1.8648425E-1,-2.8078684E1,1.059506E1,-3.8794773E1,8.410226E0,-1.5990003E1,2.2018234E1,-1.8467085E1,-2.6896849E1,3.0083659E0,5.335871E-1,-2.9172922E1,-2.4060717E0,1.6425745E1,1.838487E1,-1.9651927E0,-8.586389E0,-3.543975E1,3.2418224E-1,-1.9231286E0,5.069881E0,9.968884E0,3.5210987E1,-1.2008761E1,-2.5622914E0,1.9119382E0,3.6950827E-1,-3.0535192E0,2.329664E1,3.8282883E0,1.2973729E1,-3.5457854E0,5.1331604E-1,3.8465972E0,9.362068E0],"categories":[],"categories_nodes":[],"categories_segments":[],"categories_sizes":[],"default_left":[0,0,0,0,0,0,0,0,0,0,0,0,0,0,0,0,0,0,0,0,0,0,0,0,0,0,0,0,0,0,0,0,0,0,0],"id":3,"left_children":[1,3,5,7,9,11,13,-1,15,-1,-1,17,19,21,-1,-1,-1,23,-1,-1,25,27,29,-1,-1,-1,-1,31,33,-1,-1,-1,-1,-1,-1],"loss_changes":[1.5301703E4,5.8005293E3,1.1892131E4,1.3233613E3,2.507486E1,2.0787185E3,4.9222373E3,0E0,1.2828564E2,0E0,0E0,1.1758584E3,2.4205481E2,2.6813276E3,0E0,0E0,0E0,2.7536475E2,0E0,0E0,7.156563E0,3.5423252E3,5.3042773E2,0E0,0E0,0E0,0E0,4.7963983E2,4.28437E2,0E0,0E0,0E0,0E0,0E0,0E0],"parents":[2147483647,0,0,1,1,2,2,3,3,4,4,5,5,6,6,8,8,11,11,12,12,13,13,17,17,20,20,21,21,22,22,27,27,28,28],"right_children":[2,4,6,8,10,12,14,-1,16,-1,-1,18,20,22,-1,-1,-1,24,-1,-1,26,28,30,-1,-1,-1,-1,32,34,-1,-1,-1,-1,-1,-1],"split_conditions":[-3.6492774E-1,1.0983216E0,-5.197073E-1,-1.6350517E0,9.7285205E-1,-1.02358386E-1,1.9573387E0,-1.8467085E1,-1.7998364E0,3.0083659E0,5.335871E-1,4.408356E-1,8.071671E-2,6.932973E-1,1.838487E1,-1.9651927E0,-8.586389E0,-3.724176E-1,3.2418224E-1,-1.9231286E0,8.6213744E-1,4.8366243E-1,-1.1213039E-1,-1.2008761E1,-2.5622914E0,1.9119382E0,3.6950827E-1,-7.61201E-2,1.0166998E0,3.8282883E0,1.2973729E1,-3.5457854E0,5.1331604E-1,3.8465972E0,9.362068E0],"split_indices":[1,4,2,4,0,4,2,0,1,0,0,1,1,4,0,0,0,0,0,0,0,1,1,0,0,0,0,2,1,0,0,0,0,0,0],"split_type":[0,0,0,0,0,0,0,0,0,0,0,0,0,0,0,0,0,0,0,0,0,0,0,0,0,0,0,0,0,0,0,0,0,0,0],"sum_hessian":[5E1,1.3E1,3.7E1,1E1,3E0,1.1E1,2.6E1,2E0,8E0,2E0,1E0,5E0,6E0,2.4E1,2E0,1E0,7E0,4E0,1E0,4E0,2E0,1.9E1,5E0,3E0,1E0,1E0,1E0,1E1,9E0,2E0,3E0,3E0,7E0,5E0,4E0],"tree_param":{"num_deleted":"0","num_feature":"5","num_nodes":"35","size_leaf_vector":"1"}},{"base_weights":[2.4814288E-1,-2.1474844E1,8.244819E0,-2.9794401E1,6.7726455E0,-1.2350381E1,1.7092876E1,-4.970626E0,-4.235143E1,2.4066923E0,4.5354912E-1,-2.2795523E1,-1.633062E0,1.2577149E1,1.4707896E1,-1.4617429E1,-2.5287147E0,-2.7722034E1,2.7555487E-1,-4.871926E0,4.3093987E0,7.487029E0,2.7448027E1,-9.306789E0,-2.1779478E0,-3.0144927E-1,-1.6762477E0,1.6251475E0,3.1408197E-1,-1.1120292E-1,2.1613918E1,4.0339746E0,1.1090183E1,-1.3752556E0,1.504999E0,7.1173787E0,1.342479E0],"categories":[],"categories_nodes":[],"categories_segments":[],"categories_sizes":[],"default_left":[0,0,0,0,0,0,0,0,0,0,0,0,0,0,0,0,0,0,0,0,0,0,0,0,0,0,0,0,0,0,0,0,0,0,0,0,0],"id":4,"left_children":[1,3,5,7,9,11,13,-1,15,-1,-1,17,19,21,-1,-1,-1,23,-1,25,27,29,31,-1,-1,-1,-1,-1,-1,33,35,-1,-1,-1,-1,-1,-1],"loss_changes":[9.036353E3,3.4918784E3,7.1357495E3,1.1251123E3,1.4168579E1,1.3061007E3,3.2768613E3,0E0,6.7029004E2,0E0,0E0,7.2642773E2,1.5572281E2,1.6868594E3,0E0,0E0,0E0,1.1246875E2,0E0,8.221329E0,5.17062E0,2.1491912E3,3.026162E2,0E0,0E0,0E0,0E0,0E0,0E0,3.4411325E2,1.4705835E2,0E0,0E0,0E0,0E0,0E0,0E0],"parents":[2147483647,0,0,1,1,2,2,3,3,4,4,5,5,6,6,8,8,11,11,12,12,13,13,17,17,19,19,20,20,21,21,22,22,29,29,30,30],"right_children":[2,4,6,8,10,12,14,-1,16,-1,-1,18,20,22,-1,-1,-1,24,-1,26,28,30,32,-1,-1,-1,-1,-1,-1,34,36,-1,-1,-1,-1,-1,-1],"split_conditions":[-3.6492774E-1,1.0983216E0,-5.197073E-1,1.367016E-1,9.7285205E-1,-1.02358386E-1,1.9573387E0,-4.970626E0,1.3340185E0,2.4066923E0,4.5354912E-1,4.408356E-1,8.071671E-2,6.932973E-1,1.4707896E1,-1.4617429E1,-2.5287147E0,-3.724176E-1,2.7555487E-1,-2.6149747E-1,8.6213744E-1,8.966568E-1,1.5426724E-1,-9.306789E0,-2.1779478E0,-3.0144927E-1,-1.6762477E0,1.6251475E0,3.1408197E-1,3.4120762E-1,1.630464E0,4.0339746E0,1.1090183E1,-1.3752556E0,1.504999E0,7.1173787E0,1.342479E0],"split_indices":[1,4,2,0,0,4,2,0,0,0,0,1,1,4,0,0,0,0,0,1,0,1,1,0,0,0,0,0,0,1,0,0,0,0,0,0,0],"split_type":[0,0,0,0,0,0,0,0,0,0,0,0,0,0,0,0,0,0,0,0,0,0,0,0,0,0,0,0,0,0,0,0,0,0,0,0,0],"sum_hessian":[5E1,1.3E1,3.7E1,1E1,3E0,1.1E1,2.6E1,6E0,4E0,2E0,1E0,5E0,6E0,2.4E1,2E0,3E0,1E0,4E0,1E0,4E0,2E0,1.9E1,5E0,3E0,1E0,1E0,3E0,1E0,1E0,1.3E1,6E0,3E0,2E0,7E0,6E0,5E0,1E0],"tree_param":{"num_deleted":"0","num_feature":"5","num_nodes":"37","size_leaf_vector":"1"}},{"base_weights":[3.28945E-1,-4.385289E0,2.281596E1,-9.943696E0,1.4951822E1,7.5247674E0,3.354396E1,-1.1850183E1,-6.861995E0,5.9529586E0,8.088564E0,2.3422165E-1,2.704677E0,2.4965997E0,1.1330686E1,-1.5369497E1,-9.8901856E-1,2.6034045E-1,8.1779375E0,-2.2345242E1,-3.506924E0,-3.0617874E0,1.1777267E1,-4.0669438E-1,5.238476E-1,2.8739684E0,3.8551685E-1,-8.66839E0,-3.791004E0,-3.03223E0,6.960565E-1,-2.1903071E0,9.4496566E-1,1.0624123E0,4.237358E0],"categories":[],"categories_nodes":[],"categories_segments":[],"categories_sizes":[],"default_left":[0,0,0,0,0,0,0,0,0,0,0,0,0,0,0,0,0,0,0,0,0,0,0,0,0,0,0,0,0,0,0,0,0,0,0],"id":5,"left_children":[1,3,5,7,9,11,13,-1,15,17,-1,-1,-1,-1,-1,19,21,23,25,27,29,31,33,-1,-1,-1,-1,-1,-1,-1,-1,-1,-1,-1,-1],"loss_changes":[5.506516E3,4.770468E3,1.2239849E3,2.8258557E3,9.202656E2,4.3231934E1,2.1849951E2,0E0,1.5836589E3,8.653267E1,0E0,0E0,0E0,0E0,0E0,9.973904E2,5.652907E2,9.570372E0,3.6006866E1,1.4354907E2,2.5422253E2,4.9698682E2,7.9750977E0,0E0,0E0,0E0,0E0,0E0,0E0,0E0,0E0,0E0,0E0,0E0,0E0],"parents":[2147483647,0,0,1,1,2,2,3,3,4,4,5,5,6,6,8,8,9,9,15,15,16,16,17,17,18,18,19,19,20,20,21,21,22,22],"right_children":[2,4,6,8,10,12,14,-1,16,18,-1,-1,-1,-1,-1,20,22,24,26,28,30,32,34,-1,-1,-1,-1,-1,-1,-1,-1,-1,-1,-1,-1],"split_conditions":[8.966568E-1,1.0983216E0,2.3140071E-1,-1.6350517E0,4.5871254E-2,-8.339775E-1,9.1426384E-1,-1.1850183E1,-5.625585E-1,-7.693422E-1,8.088564E0,2.3422165E-1,2.704677E0,2.4965997E0,1.1330686E1,2.9435027E-1,1.768112E0,-1.2345847E0,4.6139076E-2,-9.566221E-1,-1.6600583E-1,3.4083617E-1,-4.6400756E-2,-4.0669438E-1,5.238476E-1,2.8739684E0,3.8551685E-1,-8.66839E0,-3.791004E0,-3.03223E0,6.960565E-1,-2.1903071E0,9.4496566E-1,1.0624123E0,4.237358E0],"split_indices":[1,4,2,4,1,0,1,0,2,2,0,0,0,0,0,4,2,0,2,2,0,1,0,0,0,0,0,0,0,0,0,0,0,0,0],"split_type":[0,0,0,0,0,0,0,0,0,0,0,0,0,0,0,0,0,0,0,0,0,0,0,0,0,0,0,0,0,0,0,0,0,0,0],"sum_hessian":[5E1,4.2E1,8E0,3.3E1,9E0,4E0,4E0,2E0,3.1E1,6E0,3E0,1E0,3E0,1E0,3E0,1.2E1,1.9E1,2E0,4E0,7E0,5E0,1.7E1,2E0,1E0,1E0,3E0,1E0,3E0,4E0,2E0,3E0,1E1,7E0,1E0,1E0],"tree_param":{"num_deleted":"0","num_feature":"5","num_nodes":"35","size_leaf_vector":"1"}},{"base_weights":[3.4085092E-1,-1.7288104E0,1.0209512E1,-8.423513E0,6.00039E-1,-9.0921335E0,6.072269E0,-1.2690064E1,2.080913E0,3.5210898E0,1.8123945E1,-1.5361681E1,-2.8385072E0,-3.5900465E-1,1.148158E0,-4.2267963E-1,9.873389E0,1.8075387E0,7.2544346E0,-1.1650152E0,-5.32375E0,-1.580757E0,-8.156495E-2,1.9908829E-1,-3.606404E-1,-2.3968968E0,5.308515E-1,1.3228378E0,3.4755454E0],"categories":[],"categories_nodes":[],"categories_segments":[],"categories_sizes":[],"default_left":[0,0,0,0,0,0,0,0,0,0,0,0,0,0,0,0,0,0,0,0,0,0,0,0,0,0,0,0,0],"id":6,"left_children":[1,3,-1,-1,5,7,9,11,13,15,17,19,21,23,-1,25,27,-1,-1,-1,-1,-1,-1,-1,-1,-1,-1,-1,-1],"loss_changes":[3.6149958E3,3.0236926E3,0E0,0E0,2.4949485E3,7.098042E2,8.585636E2,2.985503E2,2.2677876E1,6.555253E2,2.2074658E2,2.047461E2,2.3521988E1,3.3844056E0,0E0,2.9613724E2,4.244519E1,0E0,0E0,0E0,0E0,0E0,0E0,0E0,0E0,0E0,0E0,0E0,0E0],"parents":[2147483647,0,0,1,1,4,4,5,5,6,6,7,7,8,8,9,9,10,10,11,11,12,12,13,13,15,15,16,16],"right_children":[2,4,-1,-1,6,8,10,12,14,16,18,20,22,24,-1,26,28,-1,-1,-1,-1,-1,-1,-1,-1,-1,-1,-1,-1],"split_conditions":[1.9573387E0,-1.4109287E0,1.0209512E1,-8.423513E0,-5.197073E-1,1.0769311E0,1.6072421E0,1.3340185E0,-1.2860527E0,4.8366243E-1,-1.646831E-1,-1.0097919E0,-1.2213039E0,-8.339775E-1,1.148158E0,-7.61201E-2,8.966568E-1,1.8075387E0,7.2544346E0,-1.1650152E0,-5.32375E0,-1.580757E0,-8.156495E-2,1.9908829E-1,-3.606404E-1,-2.3968968E0,5.308515E-1,1.3228378E0,3.4755454E0],"split_indices":[2,4,0,0,2,3,4,0,2,1,1,0,1,0,0,2,1,0,0,0,0,0,0,0,0,0,0,0,0],"split_type":[0,0,0,0,0,0,0,0,0,0,0,0,0,0,0,0,0,0,0,0,0,0,0,0,0,0,0,0,0],"sum_hessian":[5E1,4.8E1,2E0,3E0,4.5E1,1.6E1,2.9E1,1.2E1,4E0,2.5E1,4E0,9E0,3E0,2E0,2E0,1.6E1,9E0,2E0,2E0,2E0,7E0,1E0,2E0,1E0,1E0,3E0,1.3E1,3E0,6E0],"tree_param":{"num_deleted":"0","num_feature":"5","num_nodes":"29","size_leaf_vector":"1"}},{"base_weights":[3.6831746E-1,-1.0925716E1,4.5195847E0,-1.5228526E1,3.638441E0,2.8073058E0,1.0181086E1,-7.7954426E0,-9.951041E0,1.6619569E0,3.4740525E-1,-6.4745593E0,4.084279E0,-6.7590153E-1,-3.189501E0,-3.637535E-1,8.083242E0,-4.0530634E0,6.012742E0,1.5124397E-1,1.0188359E1,-1.7347695E0,2.5547415E-1,6.7374885E-1,4.2921333E0,-1.1451924E0,1.2208145E0,2.1101735E0,3.8365796E0],"categories":[],"categories_nodes":[],"categories_segments":[],"categories_sizes":[],"default_left":[0,0,0,0,0,0,0,0,0,0,0,0,0,0,0,0,0,0,0,0,0,0,0,0,0,0,0,0,0],"id":7,"left_children":[1,3,5,7,9,11,-1,-1,13,-1,-1,-1,15,-1,-1,17,19,21,23,25,27,-1,-1,-1,-1,-1,-1,-1,-1],"loss_changes":[2.440492E3,9.327435E2,1.8188165E3,3.6585156E2,1.2450008E1,1.2404861E3,0E0,0E0,2.3202332E1,0E0,0E0,0E0,6.43291E2,0E0,0E0,4.4781763E2,3.157168E2,1.0671538E2,1.8657777E2,9.328072E1,3.3081055E1,0E0,0E0,0E0,0E0,0E0,0E0,0E0,0E0],"parents":[2147483647,0,0,1,1,2,2,3,3,4,4,5,5,8,8,12,12,15,15,16,16,17,17,18,18,19,19,20,20],"right_children":[2,4,6,8,10,12,-1,-1,14,-1,-1,-1,16,-1,-1,18,20,22,24,26,28,-1,-1,-1,-1,-1,-1,-1,-1],"split_conditions":[-3.6492774E-1,1.0983216E0,3.3429716E0,-1.6350517E0,-1.2297833E0,-1.548757E0,1.0181086E1,-7.7954426E0,-1.7998364E0,1.6619569E0,3.4740525E-1,-6.4745593E0,-7.61201E-2,-6.7590153E-1,-3.189501E0,6.1402774E-1,-7.8681487E-1,6.932973E-1,1.0050596E0,1.5153915E-1,4.1523448E-1,-1.7347695E0,2.5547415E-1,6.7374885E-1,4.2921333E0,-1.1451924E0,1.2208145E0,2.1101735E0,3.8365796E0],"split_indices":[1,4,1,4,1,2,0,0,1,0,0,0,2,0,0,3,4,4,4,0,4,0,0,0,0,0,0,0,0],"split_type":[0,0,0,0,0,0,0,0,0,0,0,0,0,0,0,0,0,0,0,0,0,0,0,0,0,0,0,0,0],"sum_hessian":[5E1,1.3E1,3.7E1,1E1,3E0,3.6E1,1E0,2E0,8E0,1E0,2E0,1E0,3.5E1,1E0,7E0,1.7E1,1.8E1,1.1E1,6E0,4E0,1.4E1,8E0,3E0,5E0,1E0,2E0,2E0,8E0,6E0],"tree_param":{"num_deleted":"0","num_feature":"5","num_nodes":"29","size_leaf_vector":"1"}},{"base_weights":[3.277047E-1,-8.195974E-1,8.653922E0,-6.2363544E0,4.454931E-1,-5.6406865E0,3.3828683E0,-5.503376E0,-3.5707874E0,1.6960351E0,1.2489927E1,-5.4057236E0,1.1802298E0,-1.7397957E0,2.7839344E0,4.4493384E0,4.687689E-1,-4.8522644E-2,-1.9659245E0,-2.2629596E-1,8.164109E-1,-5.9865814E-1,1.2952648E0],"categories":[],"categories_nodes":[],"categories_segments":[],"categories_sizes":[],"default_left":[0,0,0,0,0,0,0,0,0,0,0,0,0,0,0,0,0,0,0,0,0,0,0],"id":8,"left_children":[1,3,-1,-1,5,7,9,-1,11,13,15,17,19,-1,21,-1,-1,-1,-1,-1,-1,-1,-1],"loss_changes":[1.6923403E3,1.2723429E3,0E0,0E0,8.7719653E2,3.552279E2,4.857655E2,0E0,1.3714722E2,2.5261642E2,1.0474115E2,6.5124084E1,1.6959837E1,0E0,1.9919197E2,0E0,0E0,0E0,0E0,0E0,0E0,0E0,0E0],"parents":[2147483647,0,0,1,1,4,4,5,5,6,6,8,8,9,9,10,10,11,11,12,12,14,14],"right_children":[2,4,-1,-1,6,8,10,-1,12,14,16,18,20,-1,22,-1,-1,-1,-1,-1,-1,-1,-1],"split_conditions":[3.3429716E0,-1.6350517E0,8.653922E0,-6.2363544E0,-5.625585E-1,-1.548757E0,1.6072421E0,-5.503376E0,1.0769311E0,-7.9638183E-1,1.6597137E0,-1.3863819E0,-1.2860527E0,-1.7397957E0,-7.61201E-2,4.4493384E0,4.687689E-1,-4.8522644E-2,-1.9659245E0,-2.2629596E-1,8.164109E-1,-5.9865814E-1,1.2952648E0],"split_indices":[1,4,0,0,2,2,4,0,3,0,0,2,2,0,2,0,0,0,0,0,0,0,0],"split_type":[0,0,0,0,0,0,0,0,0,0,0,0,0,0,0,0,0,0,0,0,0,0,0],"sum_hessian":[5E1,4.9E1,1E0,2E0,4.7E1,1.5E1,3.2E1,1E0,1.4E1,2.8E1,4E0,1E1,4E0,3E0,2.5E1,3E0,1E0,2E0,8E0,2E0,2E0,6E0,1.9E1],"tree_param":{"num_deleted":"0","num_feature":"5","num_nodes":"23","size_leaf_vector":"1"}},{"base_weights":[2.169386E-1,-7.595005E-1,7.3558345E0,-7.289931E0,1.7320001E0,-9.790456E0,1.4089966E0,-1.0539489E1,3.1247635E0,-4.9890823E0,-6.4226885E0,7.4526274E-1,2.2252274E-1,-4.2515597E0,5.3645898E-2,-3.2556834E0,4.3371058E0,-2.025075E0,-5.703295E-1,9.847412E-2,1.66111E-3,-2.219413E-1,-1.4151208E0,3.1581397E0,1.0916107E1,-2.0198065E-1,1.02107055E-1,4.2448327E-1,1.888088E0,4.100807E0,3.9845353E-1],"categories":[],"categories_nodes":[],"categories_segments":[],"categories_sizes":[],"default_left":[0,0,0,0,0,0,0,0,0,0,0,0,0,0,0,0,0,0,0,0,0,0,0,0,0,0,0,0,0,0,0],"id":9,"left_children":[1,3,-1,5,7,9,11,13,15,-1,17,-1,19,-1,-1,21,23,-1,-1,-1,-1,25,-1,27,29,-1,-1,-1,-1,-1,-1],"loss_changes":[1.2288485E3,8.261548E2,0E0,3.1832104E2,6.653108E2,1.4657312E2,4.550053E0,1.5826593E2,2.7711993E2,0E0,4.9700928E-1,0E0,6.70045E-2,0E0,0E0,2.5553894E1,1.9046149E2,0E0,0E0,0E0,0E0,9.904934E-1,0E0,1.332048E2,8.7436584E1,0E0,0E0,0E0,0E0,0E0,0E0],"parents":[2147483647,0,0,1,1,3,3,4,4,5,5,6,6,7,7,8,8,10,10,12,12,15,15,16,16,21,21,23,23,24,24],"right_children":[2,4,-1,6,8,10,12,14,16,-1,18,-1,20,-1,-1,22,24,-1,-1,-1,-1,26,-1,28,30,-1,-1,-1,-1,-1,-1],"split_conditions":[3.3429716E0,-3.6492774E-1,7.3558345E0,1.0983216E0,-1.4693751E0,-1.6350517E0,-1.2297833E0,-1.12825535E-1,-8.0981946E-1,-4.9890823E0,1.3340185E0,7.4526274E-1,-8.838164E-3,-4.2515597E0,5.3645898E-2,-1.3863819E0,1.567141E0,-2.025075E0,-5.703295E-1,9.847412E-2,1.66111E-3,-1.2345847E0,-1.4151208E0,5.983931E-1,1.6597137E0,-2.0198065E-1,1.02107055E-1,4.2448327E-1,1.888088E0,4.100807E0,3.9845353E-1],"split_indices":[1,1,0,4,3,4,1,0,0,0,0,0,0,0,0,2,4,0,0,0,0,0,0,2,0,0,0,0,0,0,0],"split_type":[0,0,0,0,0,0,0,0,0,0,0,0,0,0,0,0,0,0,0,0,0,0,0,0,0,0,0,0,0,0,0],"sum_hessian":[5E1,4.9E1,1E0,1.3E1,3.6E1,1E1,3E0,3E0,3.3E1,2E0,8E0,1E0,2E0,2E0,1E0,5E0,2.8E1,7E0,1E0,1E0,1E0,2E0,3E0,2.5E1,3E0,1E0,1E0,1.7E1,8E0,2E0,1E0],"tree_param":{"num_deleted":"0","num_feature":"5","num_nodes":"31","size_leaf_vector":"1"}}]},"name":"gbtree"},"learner_model_param":{"base_score":"[1.7795984E1]","boost_from_average":"1","num_class":"0","num_feature":"5","num_target":"1"},"objective":{"name":"reg:squarederror","reg_loss_param":{"scale_pos_weight":"1"}}},"version":[3,1,2]}