{"learner":{"attributes":{},"feature_names":[],"feature_types":[],"gradient_booster":{"model":{"gbtree_model_param":{"num_parallel_tree":"1","num_trees":"30"},"iteration_indptr":[0,3,6,9,12,15,18,21,24,27,30],"tree_info":[0,1,2,0,1,2,0,1,2,0,1,2,0,1,2,0,1,2,0,1,2,0,1,2,0,1,2,0,1,2],"trees":[{"base_weights":[-2.8708177E-2,-2.0495051E-1,5.384615E-1,8.1176466E-1,-1.463415E-1,3.4615386E-1,-6.206898E-2,-1.5517244E-1,1.2857142E-1],"categories":[],"categories_nodes":[],"categories_segments":[],"categories_sizes":[],"default_left":[0,0,0,0,0,0,0,0,0],"id":0,"left_children":[1,-1,3,5,7,-1,-1,-1,-1],"loss_changes":[8.987717E0,0E0,2.5518596E0,3.529786E0,1.1930795E0,0E0,0E0,0E0,0E0],"parents":[2147483647,0,0,2,2,3,3,4,4],"right_children":[2,-1,4,6,8,-1,-1,-1,-1],"split_conditions":[4.4556752E-1,-2.0495051E-1,2.99411E-1,6.552669E-1,1.430367E-1,3.4615386E-1,-6.206898E-2,-1.5517244E-1,1.2857142E-1],"split_indices":[2,0,1,0,0,0,0,0,0],"split_type":[0,0,0,0,0,0,0,0,0],"sum_hessian":[2.2222221E1,1.0222221E1,1.1999999E1,8.444444E0,3.5555553E0,6.222222E0,2.222222E0,2.222222E0,1.3333333E0],"tree_param":{"num_deleted":"0","num_feature":"5","num_nodes":"9","size_leaf_vector":"1"}},{"base_weights":[-2.8708177E-2,-1.972603E-1,2.8965515E-1,4.6153843E-1,-3.2432437E-1,3.1034482E-1,2.4742265E-1,-7.663455E-9,-1.4400001E-1,-2.8301892E-1,7.35849E-1,-1.7560977E-1,1.2857142E-1,3.4054056E-1,-3.600001E-2],"categories":[],"categories_nodes":[],"categories_segments":[],"categories_sizes":[],"default_left":[0,0,0,0,0,0,0,0,0,0,0,0,0,0,0],"id":1,"left_children":[1,-1,3,5,7,-1,9,-1,-1,11,13,-1,-1,-1,-1],"loss_changes":[4.8394346E0,0E0,1.8499392E0,1.338839E0,2.0756751E-1,0E0,3.0005836E0,0E0,0E0,1.5178488E0,2.148618E0,0E0,0E0,0E0,0E0],"parents":[2147483647,0,0,2,2,3,3,4,4,6,6,9,9,10,10],"right_children":[2,-1,4,6,8,-1,10,-1,-1,12,14,-1,-1,-1,-1],"split_conditions":[-1.831593E-1,-1.972603E-1,1.413494E0,-3.7850222E-1,-2.326386E0,3.1034482E-1,4.1380295E-1,-7.663455E-9,-1.4400001E-1,6.552669E-1,1.430367E-1,-1.7560977E-1,1.2857142E-1,3.4054056E-1,-3.600001E-2],"split_indices":[2,0,4,1,1,0,1,0,0,0,0,0,0,0,0],"split_type":[0,0,0,0,0,0,0,0,0,0,0,0,0,0,0],"sum_hessian":[2.2222221E1,7.1111107E0,1.5111111E1,1.1999999E1,3.111111E0,2.222222E0,9.777777E0,1.3333333E0,1.7777777E0,4.8888884E0,4.8888884E0,3.5555553E0,1.3333333E0,3.111111E0,1.7777777E0],"tree_param":{"num_deleted":"0","num_feature":"5","num_nodes":"15","size_leaf_vector":"1"}},{"base_weights":[5.7416227E-2,1.1460674E0,-2.0930235E-1,3.9452055E-1,7.2E-2],"categories":[],"categories_nodes":[],"categories_segments":[],"categories_sizes":[],"default_left":[0,0,0,0,0],"id":2,"left_children":[1,3,-1,-1,-1],"loss_changes":[1.9888952E1,1.1986332E0,0E0,0E0,0E0],"parents":[2147483647,0,0,1,1],"right_children":[2,4,-1,-1,-1],"split_conditions":[1.8606414E-1,-1.831593E-1,-2.0930235E-1,3.9452055E-1,7.2E-2],"split_indices":[2,2,0,0,0],"split_type":[0,0,0,0,0],"sum_hessian":[2.2222221E1,8.888888E0,1.3333332E1,7.1111107E0,1.7777777E0],"tree_param":{"num_deleted":"0","num_feature":"5","num_nodes":"5","size_leaf_vector":"1"}},{"base_weights":[-2.6371103E-2,-1.8341449E-1,4.0485513E-1,6.363661E-1,-6.534028E-2,8.686679E-1,-5.5055052E-2,-3.21325E-1,1.198746E-1,9.631462E-2,2.836841E-1,-8.3968425E-3,-1.3717085E-1],"categories":[],"categories_nodes":[],"categories_segments":[],"categories_sizes":[],"default_left":[0,0,0,0,0,0,0,0,0,0,0,0,0],"id":3,"left_children":[1,-1,3,5,7,9,-1,11,-1,-1,-1,-1,-1],"loss_changes":[5.9172783E0,0E0,1.5154314E0,1.9050992E0,7.679624E-1,4.7044754E-3,0E0,1.474694E-1,0E0,0E0,0E0,0E0,0E0],"parents":[2147483647,0,0,2,2,3,3,4,4,5,5,7,7],"right_children":[2,-1,4,6,8,10,-1,12,-1,-1,-1,-1,-1],"split_conditions":[4.4556752E-1,-1.8341449E-1,5.2353386E-2,1.5615932E0,1.3632517E0,5.752495E-1,-5.5055052E-2,8.6666936E-1,1.198746E-1,9.631462E-2,2.836841E-1,-8.3968425E-3,-1.3717085E-1],"split_indices":[2,0,1,2,1,2,0,1,0,0,0,0,0],"split_type":[0,0,0,0,0,0,0,0,0,0,0,0,0],"sum_hessian":[2.1474789E1,8.935257E0,1.2539531E1,8.165607E0,4.3739233E0,6.3164363E0,1.8491716E0,3.0199895E0,1.3539338E0,1.4154128E0,4.9010234E0,1.338044E0,1.6819456E0],"tree_param":{"num_deleted":"0","num_feature":"5","num_nodes":"13","size_leaf_vector":"1"}},{"base_weights":[-1.709155E-2,-1.753266E-1,2.355567E-1,3.6538878E-1,-2.6968196E-1,2.4186794E-1,1.9156766E-1,-1.3302003E-1,1.7395955E-2,-2.4912383E-1,5.590386E-1,-1.5851207E-1,1.0098823E-1,2.566385E-1,-3.5813775E-2],"categories":[],"categories_nodes":[],"categories_segments":[],"categories_sizes":[],"default_left":[0,0,0,0,0,0,0,0,0,0,0,0,0,0,0],"id":4,"left_children":[1,-1,3,5,7,-1,9,-1,-1,11,13,-1,-1,-1,-1],"loss_changes":[3.3560004E0,0E0,1.1643307E0,8.685813E-1,2.4753603E-1,0E0,1.9023143E0,0E0,0E0,1.1007353E0,1.3579682E0,0E0,0E0,0E0,0E0],"parents":[2147483647,0,0,2,2,3,3,4,4,6,6,9,9,10,10],"right_children":[2,-1,4,6,8,-1,10,-1,-1,12,14,-1,-1,-1,-1],"split_conditions":[-1.831593E-1,-1.753266E-1,1.413494E0,-3.7850222E-1,-4.27608E-2,2.4186794E-1,4.1380295E-1,-1.3302003E-1,1.7395955E-2,6.552669E-1,1.430367E-1,-1.5851207E-1,1.0098823E-1,2.566385E-1,-3.5813775E-2],"split_indices":[2,0,4,1,3,0,1,0,0,0,0,0,0,0,0],"split_type":[0,0,0,0,0,0,0,0,0,0,0,0,0,0,0],"sum_hessian":[2.1453238E1,6.2054653E0,1.5247772E1,1.2350772E1,2.8970006E0,2.463838E0,9.886934E0,1.6624382E0,1.2345624E0,4.642022E0,5.2449117E0,3.209763E0,1.4322592E0,3.468461E0,1.7764506E0],"tree_param":{"num_deleted":"0","num_feature":"5","num_nodes":"15","size_leaf_vector":"1"}},{"base_weights":[4.3346033E-2,8.291309E-1,-1.8840761E-1,2.8025162E-1,6.077299E-2],"categories":[],"categories_nodes":[],"categories_segments":[],"categories_sizes":[],"default_left":[0,0,0,0,0],"id":5,"left_children":[1,3,-1,-1,-1],"loss_changes":[1.2404773E1,5.222063E-1,0E0,0E0,0E0],"parents":[2147483647,0,0,1,1],"right_children":[2,4,-1,-1,-1],"split_conditions":[1.8606414E-1,-1.831593E-1,-1.8840761E-1,2.8025162E-1,6.077299E-2],"split_indices":[2,2,0,0,0],"split_type":[0,0,0,0,0],"sum_hessian":[2.1526735E1,9.809981E0,1.1716755E1,7.981006E0,1.828975E0],"tree_param":{"num_deleted":"0","num_feature":"5","num_nodes":"5","size_leaf_vector":"1"}},{"base_weights":[-2.1311589E-2,-1.6778648E-1,3.2535318E-1,5.1208574E-1,-6.200596E-2,2.301577E-1,-6.702152E-2,-3.0005613E-1,1.0437488E-1,9.74386E-2,-1.3286796E-1,-1.2859921E-1,-7.700624E-3],"categories":[],"categories_nodes":[],"categories_segments":[],"categories_sizes":[],"default_left":[0,0,0,0,0,0,0,0,0,0,0,0,0],"id":6,"left_children":[1,-1,3,5,7,-1,9,11,-1,-1,-1,-1,-1],"loss_changes":[4.093349E0,0E0,1.0000266E0,1.4017489E0,6.1632377E-1,0E0,6.9093895E-1,1.2506029E-1,0E0,0E0,0E0,0E0,0E0],"parents":[2147483647,0,0,2,2,3,3,4,4,6,6,7,7],"right_children":[2,-1,4,6,8,-1,10,12,-1,-1,-1,-1,-1],"split_conditions":[4.4556752E-1,-1.6778648E-1,5.2353386E-2,6.50828E-1,1.3632517E0,2.301577E-1,1.5615932E0,2.3334105E-1,1.0437488E-1,9.74386E-2,-1.3286796E-1,-1.2859921E-1,-7.700624E-3],"split_indices":[2,0,1,3,1,0,2,4,0,0,0,0,0],"split_type":[0,0,0,0,0,0,0,0,0,0,0,0,0],"sum_hessian":[1.9972836E1,7.5864124E0,1.2386423E1,8.140281E0,4.246143E0,5.4254804E0,2.7148004E0,2.855761E0,1.3903818E0,1.3957392E0,1.3190613E0,1.5615772E0,1.2941837E0],"tree_param":{"num_deleted":"0","num_feature":"5","num_nodes":"13","size_leaf_vector":"1"}},{"base_weights":[-8.239099E-3,-1.5885985E-1,1.984193E-1,3.05754E-1,-2.3218276E-1,2.0288906E-1,1.5518183E-1,2.0740122E-2,-1.21307306E-1,-2.210017E-1,4.5315865E-1,-1.4662085E-1,8.741605E-2,2.1328053E-1,-3.692448E-2],"categories":[],"categories_nodes":[],"categories_segments":[],"categories_sizes":[],"default_left":[0,0,0,0,0,0,0,0,0,0,0,0,0,0,0],"id":7,"left_children":[1,-1,3,5,7,-1,9,-1,-1,11,13,-1,-1,-1,-1],"loss_changes":[2.3733604E0,0E0,8.0149317E-1,6.250167E-1,2.2105093E-1,0E0,1.2884358E0,0E0,0E0,8.774035E-1,1.0148605E0,0E0,0E0,0E0,0E0],"parents":[2147483647,0,0,2,2,3,3,4,4,6,6,9,9,10,10],"right_children":[2,-1,4,6,8,-1,10,-1,-1,12,14,-1,-1,-1,-1],"split_conditions":[-1.831593E-1,-1.5885985E-1,1.413494E0,-3.7850222E-1,-2.326386E0,2.0288906E-1,4.1380295E-1,2.0740122E-2,-1.21307306E-1,6.552669E-1,1.430367E-1,-1.4662085E-1,8.741605E-2,2.1328053E-1,-3.692448E-2],"split_indices":[2,0,4,1,1,0,1,0,0,0,0,0,0,0,0],"split_type":[0,0,0,0,0,0,0,0,0,0,0,0,0,0,0],"sum_hessian":[2.0055386E1,5.2499876E0,1.4805397E1,1.2083359E1,2.7220385E0,2.4825478E0,9.600811E0,1.2074305E0,1.5146081E0,4.3577085E0,5.2431026E0,2.8924825E0,1.4652258E0,3.4610722E0,1.7820303E0],"tree_param":{"num_deleted":"0","num_feature":"5","num_nodes":"15","size_leaf_vector":"1"}},{"base_weights":[2.9978704E-2,6.672659E-1,-1.7414586E-1,2.2533494E-1,5.2633252E-2],"categories":[],"categories_nodes":[],"categories_segments":[],"categories_sizes":[],"default_left":[0,0,0,0,0],"id":8,"left_children":[1,3,-1,-1,-1],"loss_changes":[8.438975E0,3.049817E-1,0E0,0E0,0E0],"parents":[2147483647,0,0,1,1],"right_children":[2,4,-1,-1,-1],"split_conditions":[1.8606414E-1,-1.831593E-1,-1.7414586E-1,2.2533494E-1,5.2633252E-2],"split_indices":[2,2,0,0,0],"split_type":[0,0,0,0,0],"sum_hessian":[1.969609E1,9.590824E0,1.0105267E1,7.743435E0,1.8473896E0],"tree_param":{"num_deleted":"0","num_feature":"5","num_nodes":"5","size_leaf_vector":"1"}},{"base_weights":[-1.9156473E-2,-1.5560079E-1,2.6885676E-1,4.2911723E-1,-5.8352627E-2,6.094057E-1,-5.5979792E-2,-2.811128E-1,9.221262E-2,6.1613042E-2,2.0154093E-1,-1.1956297E-1,-9.538145E-3],"categories":[],"categories_nodes":[],"categories_segments":[],"categories_sizes":[],"default_left":[0,0,0,0,0,0,0,0,0,0,0,0,0],"id":9,"left_children":[1,-1,3,5,7,9,-1,11,-1,-1,-1,-1,-1],"loss_changes":[2.8851326E0,0E0,6.943598E-1,1.0780635E0,4.9999043E-1,3.7343025E-2,0E0,9.498933E-2,0E0,0E0,0E0,0E0,0E0],"parents":[2147483647,0,0,2,2,3,3,4,4,5,5,7,7],"right_children":[2,-1,4,6,8,10,-1,12,-1,-1,-1,-1,-1],"split_conditions":[4.4556752E-1,-1.5560079E-1,5.2353386E-2,1.5615932E0,1.3632517E0,5.752495E-1,-5.5979792E-2,2.3334105E-1,9.221262E-2,6.1613042E-2,2.0154093E-1,-1.1956297E-1,-9.538145E-3],"split_indices":[2,0,1,2,1,2,0,4,0,0,0,0,0],"split_type":[0,0,0,0,0,0,0,0,0,0,0,0,0],"sum_hessian":[1.8084976E1,6.3211327E0,1.1763843E1,7.68731E0,4.0765324E0,5.954127E0,1.7331831E0,2.6772285E0,1.399304E0,1.370626E0,4.583501E0,1.4131167E0,1.2641118E0],"tree_param":{"num_deleted":"0","num_feature":"5","num_nodes":"13","size_leaf_vector":"1"}},{"base_weights":[-1.2276895E-4,-1.4560165E-1,1.7342739E-1,-2.0382522E-2,3.7595037E-1,-3.946847E-1,4.5509976E-1,-4.4827256E-2,5.746805E-1,-1.460472E-1,-3.3120844E-3,1.624415E-1,4.6855673E-2,2.1268427E-1,4.8971914E-2],"categories":[],"categories_nodes":[],"categories_segments":[],"categories_sizes":[],"default_left":[0,0,0,0,0,0,0,0,0,0,0,0,0,0,0],"id":10,"left_children":[1,-1,3,5,7,9,11,-1,13,-1,-1,-1,-1,-1,-1],"loss_changes":[1.7104486E0,0E0,5.949075E-1,1.7090713E0,8.5510707E-1,1.8352842E-1,2.5147378E-2,0E0,1.909765E-1,0E0,0E0,0E0,0E0,0E0,0E0],"parents":[2147483647,0,0,2,2,3,3,4,4,5,5,6,6,8,8],"right_children":[2,-1,4,6,8,10,12,-1,14,-1,-1,-1,-1,-1,-1],"split_conditions":[-1.831593E-1,-1.4560165E-1,6.50828E-1,4.1380295E-1,-3.6763182E-1,-6.7601524E-2,-8.735713E-1,-4.4827256E-2,-1.4167172E-2,-1.460472E-1,-3.3120844E-3,1.624415E-1,4.6855673E-2,2.1268427E-1,4.8971914E-2],"split_indices":[2,0,3,1,4,0,0,0,1,0,0,0,0,0,0],"split_type":[0,0,0,0,0,0,0,0,0,0,0,0,0,0,0],"sum_hessian":[1.8312323E1,4.3510394E0,1.3961283E1,7.59367E0,6.367613E0,4.3439875E0,3.2496824E0,1.8156799E0,4.551933E0,3.2858777E0,1.0581098E0,1.8916299E0,1.3580525E0,2.8867905E0,1.6651425E0],"tree_param":{"num_deleted":"0","num_feature":"5","num_nodes":"15","size_leaf_vector":"1"}},{"base_weights":[2.002147E-2,5.6778663E-1,-1.6314775E-1,1.9310515E-1,4.6481997E-2],"categories":[],"categories_nodes":[],"categories_segments":[],"categories_sizes":[],"default_left":[0,0,0,0,0],"id":11,"left_children":[1,3,-1,-1,-1],"loss_changes":[5.9851933E0,2.0770335E-1,0E0,0E0,0E0],"parents":[2147483647,0,0,1,1],"right_children":[2,4,-1,-1,-1],"split_conditions":[1.8606414E-1,-1.831593E-1,-1.6314775E-1,1.9310515E-1,4.6481997E-2],"split_indices":[2,2,0,0,0],"split_type":[0,0,0,0,0],"sum_hessian":[1.737885E1,8.811595E0,8.567256E0,6.970933E0,1.8406615E0],"tree_param":{"num_deleted":"0","num_feature":"5","num_nodes":"5","size_leaf_vector":"1"}},{"base_weights":[-1.7573636E-2,-1.4563876E-1,2.2588325E-1,3.7524435E-1,-6.2260956E-2,5.378783E-1,-4.886424E-2,-2.681157E-1,8.150455E-2,5.7518736E-2,1.771081E-1,-1.0202718E-2,-1.19336516E-1],"categories":[],"categories_nodes":[],"categories_segments":[],"categories_sizes":[],"default_left":[0,0,0,0,0,0,0,0,0,0,0,0,0],"id":12,"left_children":[1,-1,3,5,7,9,-1,11,-1,-1,-1,-1,-1],"loss_changes":[2.0764935E0,0E0,5.4151344E-1,7.940165E-1,4.1435325E-1,3.6360025E-3,0E0,9.504905E-2,0E0,0E0,0E0,0E0,0E0],"parents":[2147483647,0,0,2,2,3,3,4,4,5,5,7,7],"right_children":[2,-1,4,6,8,10,-1,12,-1,-1,-1,-1,-1],"split_conditions":[4.4556752E-1,-1.4563876E-1,5.2353386E-2,1.5615932E0,1.3632517E0,5.752495E-1,-4.886424E-2,1.406614E-2,8.150455E-2,5.7518736E-2,1.771081E-1,-1.0202718E-2,-1.19336516E-1],"split_indices":[2,0,1,2,1,2,0,0,0,0,0,0,0],"split_type":[0,0,0,0,0,0,0,0,0,0,0,0,0],"sum_hessian":[1.6266459E1,5.2269597E0,1.1039499E1,7.0716114E0,3.9678879E0,5.4307666E0,1.640845E0,2.5766597E0,1.3912281E0,1.3276149E0,4.103152E0,1.3684231E0,1.2082367E0],"tree_param":{"num_deleted":"0","num_feature":"5","num_nodes":"13","size_leaf_vector":"1"}},{"base_weights":[8.756528E-3,-1.3424417E-1,1.554363E-1,-1.4254123E-2,3.2002002E-1,-3.6274177E-1,4.0069938E-1,-4.0490244E-2,4.9456224E-1,-1.3472E-1,-5.164117E-3,1.4757924E-1,3.531307E-2,1.8704796E-1,3.8130388E-2],"categories":[],"categories_nodes":[],"categories_segments":[],"categories_sizes":[],"default_left":[0,0,0,0,0,0,0,0,0,0,0,0,0,0,0],"id":13,"left_children":[1,-1,3,5,7,9,11,-1,13,-1,-1,-1,-1,-1,-1],"loss_changes":[1.2534354E0,0E0,3.9916313E-1,1.289761E0,6.397347E-1,1.3622874E-1,4.762709E-2,0E0,1.779666E-1,0E0,0E0,0E0,0E0,0E0,0E0],"parents":[2147483647,0,0,2,2,3,3,4,4,5,5,6,6,8,8],"right_children":[2,-1,4,6,8,10,12,-1,14,-1,-1,-1,-1,-1,-1],"split_conditions":[-1.831593E-1,-1.3424417E-1,6.50828E-1,4.1380295E-1,-3.6763182E-1,-6.7601524E-2,-8.735713E-1,-4.0490244E-2,-1.4167172E-2,-1.3472E-1,-5.164117E-3,1.4757924E-1,3.531307E-2,1.8704796E-1,3.8130388E-2],"split_indices":[2,0,3,1,4,0,0,0,1,0,0,0,0,0,0],"split_type":[0,0,0,0,0,0,0,0,0,0,0,0,0,0,0],"sum_hessian":[1.6690784E1,3.5616848E0,1.31291E1,6.913983E0,6.215117E0,3.8263502E0,3.0876327E0,1.7860553E0,4.429062E0,2.8217306E0,1.0046194E0,1.7765591E0,1.3110735E0,2.7628872E0,1.6661744E0],"tree_param":{"num_deleted":"0","num_feature":"5","num_nodes":"15","size_leaf_vector":"1"}},{"base_weights":[9.222428E-3,5.00707E-1,-1.5470153E-1,1.7821127E-1,1.8205091E-1,-4.423329E-2,1.2687872E-1],"categories":[],"categories_nodes":[],"categories_segments":[],"categories_sizes":[],"default_left":[0,0,0,0,0,0,0],"id":14,"left_children":[1,3,-1,-1,5,-1,-1],"loss_changes":[4.4128637E0,1.5429688E-1,0E0,0E0,3.3546078E-1,0E0,0E0],"parents":[2147483647,0,0,1,1,4,4],"right_children":[2,4,-1,-1,6,-1,-1],"split_conditions":[1.8606414E-1,-6.4994895E-1,-1.5470153E-1,1.7821127E-1,-1.1144645E-2,-4.423329E-2,1.2687872E-1],"split_indices":[2,4,0,0,4,0,0],"split_type":[0,0,0,0,0,0,0],"sum_hessian":[1.5104761E1,7.824434E0,7.280327E0,5.3834796E0,2.4409542E0,1.1946673E0,1.2462869E0],"tree_param":{"num_deleted":"0","num_feature":"5","num_nodes":"7","size_leaf_vector":"1"}},{"base_weights":[-1.648075E-2,-1.3680504E-1,1.9222882E-1,3.1609884E-1,-1.1673788E-1,5.172481E-1,-6.6537805E-2,-1.202168E-1,7.285062E-2,5.4236423E-2,1.7000324E-1],"categories":[],"categories_nodes":[],"categories_segments":[],"categories_sizes":[],"default_left":[0,0,0,0,0,0,0,0,0,0,0],"id":15,"left_children":[1,-1,3,5,7,9,-1,-1,-1,-1,-1],"loss_changes":[1.5171576E0,0E0,4.6819398E-1,1.0142558E0,5.0120354E-1,3.177762E-3,0E0,0E0,0E0,0E0,0E0],"parents":[2147483647,0,0,2,2,3,3,4,4,5,5],"right_children":[2,-1,4,6,8,10,-1,-1,-1,-1,-1],"split_conditions":[4.4556752E-1,-1.3680504E-1,2.99411E-1,1.5615932E0,1.3632517E0,5.752495E-1,-6.6537805E-2,-1.202168E-1,7.285062E-2,5.4236423E-2,1.7000324E-1],"split_indices":[2,0,1,2,1,2,0,0,0,0,0],"split_type":[0,0,0,0,0,0,0,0,0,0,0],"sum_hessian":[1.4582844E1,4.3135996E0,1.0269244E1,7.313895E0,2.955349E0,5.3511605E0,1.9627348E0,1.5872929E0,1.368056E0,1.2820303E0,4.06913E0],"tree_param":{"num_deleted":"0","num_feature":"5","num_nodes":"11","size_leaf_vector":"1"}},{"base_weights":[1.4946526E-2,-1.2453119E-1,1.4148414E-1,1.7077617E-2,3.07055E-1,-2.6223785E-1,4.018304E-1,1.5889579E-1,-3.570839E-2,2.8857505E-2,-1.3477711E-1,1.5064844E-1,2.9208649E-2],"categories":[],"categories_nodes":[],"categories_segments":[],"categories_sizes":[],"default_left":[0,0,0,0,0,0,0,0,0,0,0,0,0],"id":16,"left_children":[1,-1,3,5,7,9,11,-1,-1,-1,-1,-1,-1],"loss_changes":[9.3810964E-1,0E0,2.673056E-1,1.0310943E0,5.9586614E-1,4.1832724E-1,7.38498E-2,0E0,0E0,0E0,0E0,0E0,0E0],"parents":[2147483647,0,0,2,2,3,3,4,4,5,5,6,6],"right_children":[2,-1,4,6,8,10,12,-1,-1,-1,-1,-1,-1],"split_conditions":[-1.831593E-1,-1.2453119E-1,4.1380295E-1,6.552669E-1,1.430367E-1,-1.410886E0,1.5264031E0,1.5889579E-1,-3.570839E-2,2.8857505E-2,-1.3477711E-1,1.5064844E-1,2.9208649E-2],"split_indices":[2,0,1,0,0,1,0,0,0,0,0,0,0],"split_type":[0,0,0,0,0,0,0,0,0,0,0,0,0],"sum_hessian":[1.5159838E1,2.92806E0,1.2231777E1,7.613953E0,4.617824E0,4.59592E0,3.0180328E0,2.8735354E0,1.7442887E0,1.742332E0,2.853588E0,1.7816288E0,1.2364041E0],"tree_param":{"num_deleted":"0","num_feature":"5","num_nodes":"13","size_leaf_vector":"1"}},{"base_weights":[1.091143E-3,4.5254967E-1,-1.4757639E-1,1.623509E-1,1.5969999E-1,-3.8952418E-2,1.1191232E-1],"categories":[],"categories_nodes":[],"categories_segments":[],"categories_sizes":[],"default_left":[0,0,0,0,0,0,0],"id":17,"left_children":[1,3,-1,-1,5,-1,-1],"loss_changes":[3.3402581E0,1.1684847E-1,0E0,0E0,2.4846578E-1,0E0,0E0],"parents":[2147483647,0,0,1,1,4,4],"right_children":[2,4,-1,-1,6,-1,-1],"split_conditions":[1.8606414E-1,-6.4994895E-1,-1.4757639E-1,1.623509E-1,-1.1144645E-2,-3.8952418E-2,1.1191232E-1],"split_indices":[2,4,0,0,4,0,0],"split_type":[0,0,0,0,0,0,0],"sum_hessian":[1.300716E1,6.8325605E0,6.1746E0,4.594319E0,2.2382417E0,1.1155857E0,1.122656E0],"tree_param":{"num_deleted":"0","num_feature":"5","num_nodes":"7","size_leaf_vector":"1"}},{"base_weights":[-1.61953E-2,-1.2885873E-1,1.6761163E-1,2.7806583E-1,-1.0265604E-1,4.6837997E-1,-5.9404057E-2,-1.12167686E-1,6.640391E-2,4.638166E-2,1.5536407E-1],"categories":[],"categories_nodes":[],"categories_segments":[],"categories_sizes":[],"default_left":[0,0,0,0,0,0,0,0,0,0,0],"id":18,"left_children":[1,-1,3,5,7,9,-1,-1,-1,-1,-1],"loss_changes":[1.1308959E0,0E0,3.3801877E-1,7.839581E-1,4.1125754E-1,9.1995E-3,0E0,0E0,0E0,0E0,0E0],"parents":[2147483647,0,0,2,2,3,3,4,4,5,5],"right_children":[2,-1,4,6,8,10,-1,-1,-1,-1,-1],"split_conditions":[4.4556752E-1,-1.2885873E-1,2.99411E-1,1.5615932E0,1.3632517E0,5.752495E-1,-5.9404057E-2,-1.12167686E-1,6.640391E-2,4.638166E-2,1.5536407E-1],"split_indices":[2,0,1,2,1,2,0,0,0,0,0],"split_type":[0,0,0,0,0,0,0,0,0,0,0],"sum_hessian":[1.2937759E1,3.5708966E0,9.366863E0,6.628886E0,2.7379768E0,4.747308E0,1.8815781E0,1.4065304E0,1.3314464E0,1.2087235E0,3.5385845E0],"tree_param":{"num_deleted":"0","num_feature":"5","num_nodes":"11","size_leaf_vector":"1"}},{"base_weights":[1.953859E-2,-1.1556551E-1,1.3103494E-1,-1.1582756E-2,2.5226113E-1,-3.1510133E-1,3.23135E-1,-3.4134664E-2,4.0299085E-1,-1.1291093E-1,-2.675583E-2,1.2211286E-1,2.2404836E-2,1.5695426E-1,2.3472114E-2],"categories":[],"categories_nodes":[],"categories_segments":[],"categories_sizes":[],"default_left":[0,0,0,0,0,0,0,0,0,0,0,0,0,0,0],"id":19,"left_children":[1,-1,3,5,7,9,11,-1,13,-1,-1,-1,-1,-1,-1],"loss_changes":[7.0965236E-1,0E0,2.1381444E-1,7.6833683E-1,4.1206408E-1,2.1064967E-2,4.4935584E-2,0E0,1.5116614E-1,0E0,0E0,0E0,0E0,0E0,0E0],"parents":[2147483647,0,0,2,2,3,3,4,4,5,5,6,6,8,8],"right_children":[2,-1,4,6,8,10,12,-1,14,-1,-1,-1,-1,-1,-1],"split_conditions":[-1.831593E-1,-1.1556551E-1,6.50828E-1,4.1380295E-1,-3.6763182E-1,-8.022444E-1,-8.735713E-1,-3.4134664E-2,-1.4167172E-2,-1.1291093E-1,-2.675583E-2,1.2211286E-1,2.2404836E-2,1.5695426E-1,2.3472114E-2],"split_indices":[2,0,3,1,4,0,0,0,1,0,0,0,0,0,0],"split_type":[0,0,0,0,0,0,0,0,0,0,0,0,0,0,0],"sum_hessian":[1.3606494E1,2.4084156E0,1.1198078E1,5.5606513E0,5.6374273E0,2.9469728E0,2.6136785E0,1.7157923E0,3.921635E0,1.7943623E0,1.1526105E0,1.4766622E0,1.1370164E0,2.4163287E0,1.5053062E0],"tree_param":{"num_deleted":"0","num_feature":"5","num_nodes":"15","size_leaf_vector":"1"}},{"base_weights":[-4.9263323E-3,4.133476E-1,-1.4090863E-1,1.4493234E-1,3.4656025E-2],"categories":[],"categories_nodes":[],"categories_segments":[],"categories_sizes":[],"default_left":[0,0,0,0,0],"id":20,"left_children":[1,3,-1,-1,-1],"loss_changes":[2.5486014E0,8.7682724E-2,0E0,0E0,0E0],"parents":[2147483647,0,0,1,1],"right_children":[2,4,-1,-1,-1],"split_conditions":[1.8606414E-1,-1.831593E-1,-1.4090863E-1,1.4493234E-1,3.4656025E-2],"split_indices":[2,2,0,0,0],"split_type":[0,0,0,0,0],"sum_hessian":[1.111134E1,5.906426E0,5.2049136E0,4.281471E0,1.6249552E0],"tree_param":{"num_deleted":"0","num_feature":"5","num_nodes":"5","size_leaf_vector":"1"}},{"base_weights":[-1.4928735E-2,-1.2123123E-1,1.4695075E-1,2.760022E-1,-6.657913E-2,1.4076568E-1,-1.6713392E-2,-1.0457465E-1,1.2334665E-1,-2.2930954E-2,8.269835E-2],"categories":[],"categories_nodes":[],"categories_segments":[],"categories_sizes":[],"default_left":[0,0,0,0,0,0,0,0,0,0,0],"id":21,"left_children":[1,-1,3,5,7,-1,-1,-1,9,-1,-1],"loss_changes":[8.492902E-1,0E0,2.8259557E-1,4.216388E-1,2.796022E-1,0E0,0E0,0E0,1.2387473E-1,0E0,0E0],"parents":[2147483647,0,0,2,2,3,3,4,4,8,8],"right_children":[2,-1,4,6,8,-1,-1,-1,10,-1,-1],"split_conditions":[4.4556752E-1,-1.2123123E-1,5.2353386E-2,6.50828E-1,8.5361135E-1,1.4076568E-1,-1.6713392E-2,-1.0457465E-1,1.1169411E0,-2.2930954E-2,8.269835E-2],"split_indices":[2,0,1,3,2,0,0,0,1,0,0],"split_type":[0,0,0,0,0,0,0,0,0,0,0],"sum_hessian":[1.15383005E1,2.9499598E0,8.588341E0,5.1707287E0,3.417612E0,3.005533E0,2.165196E0,1.0392166E0,2.3783953E0,1.2443767E0,1.1340188E0],"tree_param":{"num_deleted":"0","num_feature":"5","num_nodes":"11","size_leaf_vector":"1"}},{"base_weights":[2.295867E-2,-1.0645325E-1,1.19407944E-1,-8.761373E-2,1.8735372E-1,6.347063E-2,-1.1024824E-1,2.3858814E-2,1.4145535E-1,-2.27297E-1,1.2667067E-1,2.2323523E-2,-1.1967157E-1],"categories":[],"categories_nodes":[],"categories_segments":[],"categories_sizes":[],"default_left":[0,0,0,0,0,0,0,0,0,0,0,0,0],"id":22,"left_children":[1,-1,3,5,7,-1,-1,9,-1,11,-1,-1,-1],"loss_changes":[5.282271E-1,0E0,1.7634869E-1,3.7006694E-1,4.0126696E-1,0E0,0E0,7.6529306E-1,0E0,2.7577046E-1,0E0,0E0,0E0],"parents":[2147483647,0,0,2,2,3,3,4,4,7,7,9,9],"right_children":[2,-1,4,6,8,-1,-1,10,-1,12,-1,-1,-1],"split_conditions":[-1.831593E-1,-1.0645325E-1,-3.6763182E-1,7.111321E-1,6.552669E-1,6.347063E-2,-1.1024824E-1,4.1380295E-1,1.4145535E-1,-1.410886E0,1.2667067E-1,2.2323523E-2,-1.1967157E-1],"split_indices":[2,0,4,2,0,0,0,1,0,1,0,0,0],"split_type":[0,0,0,0,0,0,0,0,0,0,0,0,0],"sum_hessian":[1.2333476E1,1.9634281E0,1.0370048E1,2.4909601E0,7.879088E0,1.3219333E0,1.1690269E0,5.6895466E0,2.1895413E0,3.7529495E0,1.9365971E0,1.5660403E0,2.1869092E0],"tree_param":{"num_deleted":"0","num_feature":"5","num_nodes":"13","size_leaf_vector":"1"}},{"base_weights":[-1.1307175E-2,3.7939948E-1,-1.3488202E-1,1.404368E-1,3.3444975E-2],"categories":[],"categories_nodes":[],"categories_segments":[],"categories_sizes":[],"default_left":[0,0,0,0,0],"id":23,"left_children":[1,3,-1,-1,-1],"loss_changes":[1.971905E0,9.2900336E-2,0E0,0E0,0E0],"parents":[2147483647,0,0,1,1],"right_children":[2,4,-1,-1,-1],"split_conditions":[1.8606414E-1,-6.4994895E-1,-1.3488202E-1,1.404368E-1,3.3444975E-2],"split_indices":[2,4,0,0,0],"split_type":[0,0,0,0,0],"sum_hessian":[9.518895E0,5.1037345E0,4.415161E0,3.2726808E0,1.8310539E0],"tree_param":{"num_deleted":"0","num_feature":"5","num_nodes":"5","size_leaf_vector":"1"}},{"base_weights":[-1.6708132E-2,-1.139658E-1,1.277333E-1,2.287248E-1,-9.991293E-2,1.2253844E-1,-5.261433E-2,-1.01836115E-1,5.6124076E-2],"categories":[],"categories_nodes":[],"categories_segments":[],"categories_sizes":[],"default_left":[0,0,0,0,0,0,0,0,0],"id":24,"left_children":[1,-1,3,5,7,-1,-1,-1,-1],"loss_changes":[6.3972783E-1,0E0,2.2543336E-1,5.3704906E-1,2.975048E-1,0E0,0E0,0E0,0E0],"parents":[2147483647,0,0,2,2,3,3,4,4],"right_children":[2,-1,4,6,8,-1,-1,-1,-1],"split_conditions":[4.4556752E-1,-1.139658E-1,2.99411E-1,1.5615932E0,1.3632517E0,1.2253844E-1,-5.261433E-2,-1.01836115E-1,5.6124076E-2],"split_indices":[2,0,1,2,1,0,0,0,0],"split_type":[0,0,0,0,0,0,0,0,0],"sum_hessian":[1.0270054E1,2.45849E0,7.8115644E0,5.407762E0,2.4038022E0,3.7355158E0,1.6722465E0,1.2105854E0,1.1932168E0],"tree_param":{"num_deleted":"0","num_feature":"5","num_nodes":"9","size_leaf_vector":"1"}},{"base_weights":[2.5563478E-2,-9.845083E-2,1.11987896E-1,-8.150001E-2,1.7941809E-1,5.772379E-2,-1.03302516E-1,-6.20153E-2,2.71148E-1,1.20619245E-1,1.3500983E-1,1.0446284E-1,-3.8976956E-2,3.8853064E-2,-4.385912E-2],"categories":[],"categories_nodes":[],"categories_segments":[],"categories_sizes":[],"default_left":[0,0,0,0,0,0,0,0,0,0,0,0,0,0,0],"id":25,"left_children":[1,-1,3,5,7,-1,-1,-1,9,11,-1,-1,13,-1,-1],"loss_changes":[4.070511E-1,0E0,1.5135406E-1,3.1075495E-1,3.4238625E-1,0E0,0E0,0E0,1.3325948E-1,2.0057169E-1,0E0,0E0,8.9849636E-2,0E0,0E0],"parents":[2147483647,0,0,2,2,3,3,4,4,8,8,9,9,12,12],"right_children":[2,-1,4,6,8,-1,-1,-1,10,12,-1,-1,14,-1,-1],"split_conditions":[-1.831593E-1,-9.845083E-2,-3.6763182E-1,7.111321E-1,-5.1459944E-1,5.772379E-2,-1.03302516E-1,-6.20153E-2,1.3475652E0,-1.1144645E-2,1.3500983E-1,1.0446284E-1,-7.058853E-1,3.8853064E-2,-4.385912E-2],"split_indices":[2,0,4,2,3,0,0,0,2,4,0,0,1,0,0],"split_type":[0,0,0,0,0,0,0,0,0,0,0,0,0,0,0],"sum_hessian":[1.1112725E1,1.6327475E0,9.479979E0,2.3960273E0,7.0839505E0,1.3045166E0,1.0915108E0,1.1191899E0,5.964761E0,4.1483083E0,1.8164529E0,1.2227728E0,2.9255352E0,1.0568676E0,1.8686676E0],"tree_param":{"num_deleted":"0","num_feature":"5","num_nodes":"15","size_leaf_vector":"1"}},{"base_weights":[-1.321076E-2,3.4749302E-1,-1.284826E-1,1.3166396E-1,2.7676322E-2],"categories":[],"categories_nodes":[],"categories_segments":[],"categories_sizes":[],"default_left":[0,0,0,0,0],"id":26,"left_children":[1,3,-1,-1,-1],"loss_changes":[1.5239693E0,8.701807E-2,0E0,0E0,0E0],"parents":[2147483647,0,0,1,1],"right_children":[2,4,-1,-1,-1],"split_conditions":[1.8606414E-1,-6.4994895E-1,-1.284826E-1,1.3166396E-1,2.7676322E-2],"split_indices":[2,4,0,0,0],"split_type":[0,0,0,0,0],"sum_hessian":[8.185075E0,4.4664183E0,3.7186563E0,2.759062E0,1.7073561E0],"tree_param":{"num_deleted":"0","num_feature":"5","num_nodes":"5","size_leaf_vector":"1"}},{"base_weights":[-2.0105818E-2,-2.7607375E-1,1.635541E-1,-3.1719368E-3,-1.1641169E-1,1.1423557E-1,4.3890618E-2,-8.1241645E-2,2.284348E-1,9.55137E-2,-1.1001062E-3],"categories":[],"categories_nodes":[],"categories_segments":[],"categories_sizes":[],"default_left":[0,0,0,0,0,0,0,0,0,0,0],"id":27,"left_children":[1,3,5,-1,-1,-1,7,-1,9,-1,-1],"loss_changes":[5.267063E-1,1.3416672E-1,1.5464546E-1,0E0,0E0,0E0,3.7435755E-1,0E0,8.330013E-2,0E0,0E0],"parents":[2147483647,0,0,1,1,2,2,6,6,8,8],"right_children":[2,4,6,-1,-1,-1,8,-1,10,-1,-1],"split_conditions":[7.197524E-1,1.4179333E-2,-3.6763182E-1,-3.1719368E-3,-1.1641169E-1,1.1423557E-1,3.9563185E-1,-8.1241645E-2,3.7753478E-1,9.55137E-2,-1.1001062E-3],"split_indices":[2,1,4,0,0,0,4,0,3,0,0],"split_type":[0,0,0,0,0,0,0,0,0,0,0],"sum_hessian":[9.243405E0,3.6513367E0,5.5920687E0,1.407706E0,2.2436306E0,1.211194E0,4.3808746E0,1.4466053E0,2.9342694E0,1.8468547E0,1.0874149E0],"tree_param":{"num_deleted":"0","num_feature":"5","num_nodes":"11","size_leaf_vector":"1"}},{"base_weights":[2.9802846E-2,-9.0922326E-2,1.072304E-1,-7.128499E-2,1.7077301E-1,5.3578364E-3,-3.802485E-2,-5.94685E-2,2.613437E-1,1.1204625E-1,1.24124296E-1,-1.0170581E-1,1.0640799E-1,4.9028262E-2,-9.2480764E-2],"categories":[],"categories_nodes":[],"categories_segments":[],"categories_sizes":[],"default_left":[0,0,0,0,0,0,0,0,0,0,0,0,0,0,0],"id":28,"left_children":[1,-1,3,5,7,-1,-1,-1,9,11,-1,13,-1,-1,-1],"loss_changes":[3.204382E-1,0E0,1.2336339E-1,1.8474644E-2,3.0324757E-1,0E0,0E0,0E0,1.0090554E-1,2.7677453E-1,0E0,2.2806808E-1,0E0,0E0,0E0],"parents":[2147483647,0,0,2,2,3,3,4,4,8,8,9,9,11,11],"right_children":[2,-1,4,6,8,-1,-1,-1,10,12,-1,14,-1,-1,-1],"split_conditions":[-1.831593E-1,-9.0922326E-2,-3.6763182E-1,-1.023186E0,-5.1459944E-1,5.3578364E-3,-3.802485E-2,-5.94685E-2,6.552669E-1,2.99411E-1,1.24124296E-1,-7.847965E-1,1.0640799E-1,4.9028262E-2,-9.2480764E-2],"split_indices":[2,0,4,4,3,0,0,0,0,1,0,1,0,0,0],"split_type":[0,0,0,0,0,0,0,0,0,0,0,0,0,0,0],"sum_hessian":[1.0171755E1,1.3695362E0,8.802218E0,2.2786837E0,6.5235353E0,1.1340318E0,1.1446518E0,1.0513765E0,5.4721584E0,3.6407814E0,1.8313771E0,2.2444525E0,1.396329E0,1.0743291E0,1.1701232E0],"tree_param":{"num_deleted":"0","num_feature":"5","num_nodes":"15","size_leaf_vector":"1"}},{"base_weights":[-1.5651524E-2,3.1879383E-1,-1.225416E-1,1.23764165E-1,2.287633E-2],"categories":[],"categories_nodes":[],"categories_segments":[],"categories_sizes":[],"default_left":[0,0,0,0,0],"id":29,"left_children":[1,3,-1,-1,-1],"loss_changes":[1.1962118E0,8.0969214E-2,0E0,0E0,0E0],"parents":[2147483647,0,0,1,1],"right_children":[2,4,-1,-1,-1],"split_conditions":[1.8606414E-1,-6.4994895E-1,-1.225416E-1,1.23764165E-1,2.287633E-2],"split_indices":[2,4,0,0,0],"split_type":[0,0,0,0,0],"sum_hessian":[7.114004E0,3.9442978E0,3.1697066E0,2.3391519E0,1.6051458E0],"tree_param":{"num_deleted":"0","num_feature":"5","num_nodes":"5","size_leaf_vector":"1"}}]},"name":"gbtree"},"learner_model_param":{"base_score":"5E-1","boost_from_average":"1","num_class":"3","num_feature":"5","num_target":"1"},"objective":{"name":"multi:softprob","softmax_multiclass_param":{"num_class":"3"}}},"version":[3,0,2]}