{"learner":{"attributes":{},"feature_names":[],"feature_types":[],"gradient_booster":{"model":{"cats":{"enc":[],"feature_segments":[],"sorted_idx":[]},"gbtree_model_param":{"num_parallel_tree":"1","num_trees":"30"},"iteration_indptr":[0,3,6,9,12,15,18,21,24,27,30],"tree_info":[0,1,2,0,1,2,0,1,2,0,1,2,0,1,2,0,1,2,0,1,2,0,1,2,0,1,2,0,1,2],"trees":[{"base_weights":[-1.1031104E-1,-1.9986084E-1,5.4351676E-1,-4.215158E-1,4.0576625E-1,-1.6802964E-1,9.462379E-3],"categories":[],"categories_nodes":[],"categories_segments":[],"categories_sizes":[],"default_left":[0,0,0,0,0,0,0],"id":0,"left_children":[1,-1,3,5,-1,-1,-1],"loss_changes":[8.490803E0,0E0,9.023961E0,3.7556446E-1,0E0,0E0,0E0],"parents":[2147483647,0,0,2,2,3,3],"right_children":[2,-1,4,6,-1,-1,-1],"split_conditions":[7.544528E-1,-1.9986084E-1,-3.3510116E-1,2.709231E0,4.0576625E-1,-1.6802964E-1,9.462379E-3],"split_indices":[0,0,4,0,0,0,0],"split_type":[0,0,0,0,0,0,0],"sum_hessian":[2.1364954E1,1.1537075E1,9.827879E0,4.7002897E0,5.127589E0,3.4183927E0,1.2818973E0],"tree_param":{"num_deleted":"0","num_feature":"5","num_nodes":"7","size_leaf_vector":"1"}},{"base_weights":[3.8562637E-2,-3.2078522E-1,6.424517E-1,-5.424301E-1,1.5800802E-1,2.9645872E-1,-1.4651957E-1,-1.5978582E-1,-2.0287399E-1,1.2438902E-1,-1.5779041E-1],"categories":[],"categories_nodes":[],"categories_segments":[],"categories_sizes":[],"default_left":[0,0,0,0,0,0,0,0,0,0,0],"id":1,"left_children":[1,3,5,7,-1,-1,-1,9,-1,-1,-1],"loss_changes":[5.3056655E0,3.1783807E0,4.0405483E0,5.4222894E-1,0E0,0E0,0E0,1.1856394E0,0E0,0E0,0E0],"parents":[2147483647,0,0,1,1,2,2,3,3,7,7],"right_children":[2,4,6,8,-1,-1,-1,10,-1,-1,-1],"split_conditions":[1.2855232E0,1.6011149E0,-3.3510116E-1,-7.8515075E-2,1.5800802E-1,2.9645872E-1,-1.4651957E-1,6.79005E-1,-2.0287399E-1,1.2438902E-1,-1.5779041E-1],"split_indices":[3,2,4,1,0,0,0,0,0,0,0],"split_type":[0,0,0,0,0,0,0,0,0,0,0],"sum_hessian":[2.2499676E1,1.4399793E1,8.099883E0,1.1699832E1,2.6999612E0,6.299909E0,1.7999741E0,3.5999482E0,8.099883E0,1.3499806E0,2.2499676E0],"tree_param":{"num_deleted":"0","num_feature":"5","num_nodes":"11","size_leaf_vector":"1"}},{"base_weights":[6.5823436E-2,-4.778697E-1,1.1392342E0,2.7246645E-2,-2.1021757E-1,3.6778852E-1,1.21083535E-1,2.480516E-1,-3.8632E-1,-5.884524E-3,-1.599267E-1],"categories":[],"categories_nodes":[],"categories_segments":[],"categories_sizes":[],"default_left":[0,0,0,0,0,0,0,0,0,0,0],"id":2,"left_children":[1,3,5,7,-1,-1,-1,-1,9,-1,-1],"loss_changes":[1.4383639E1,1.8702788E0,3.2691002E-2,2.3025162E0,0E0,0E0,0E0,0E0,2.3895657E-1,0E0,0E0],"parents":[2147483647,0,0,1,1,2,2,3,3,8,8],"right_children":[2,4,6,8,-1,-1,-1,-1,10,-1,-1],"split_conditions":[-1.9312091E-3,7.544528E-1,1.4602866E0,-1.0654637E-1,-2.1021757E-1,3.6778852E-1,1.21083535E-1,2.480516E-1,-4.0674567E-1,-5.884524E-3,-1.599267E-1],"split_indices":[1,0,2,2,0,0,0,0,0,0,0],"split_type":[0,0,0,0,0,0,0,0,0,0,0],"sum_hessian":[2.2713316E1,1.5445055E1,7.268261E0,4.996929E0,1.0448125E1,5.9054623E0,1.3627989E0,1.3627989E0,3.6341305E0,1.3627989E0,2.2713315E0],"tree_param":{"num_deleted":"0","num_feature":"5","num_nodes":"11","size_leaf_vector":"1"}},{"base_weights":[-9.54952E-2,-1.8207252E-1,4.1793403E-1,-3.6978334E-1,2.8934377E-1,2.5104133E-2,-1.5595785E-1],"categories":[],"categories_nodes":[],"categories_segments":[],"categories_sizes":[],"default_left":[0,0,0,0,0,0,0],"id":3,"left_children":[1,-1,3,5,-1,-1,-1],"loss_changes":[5.863167E0,0E0,5.2013044E0,4.0638888E-1,0E0,0E0,0E0],"parents":[2147483647,0,0,2,2,3,3],"right_children":[2,-1,4,6,-1,-1,-1],"split_conditions":[7.544528E-1,-1.8207252E-1,-3.3510116E-1,-1.9234426E0,2.8934377E-1,2.5104133E-2,-1.5595785E-1],"split_indices":[0,0,4,2,0,0,0],"split_type":[0,0,0,0,0,0,0],"sum_hessian":[2.0363537E1,1.0110585E1,1.0252953E1,4.3323283E0,5.920624E0,1.1872866E0,3.1450417E0],"tree_param":{"num_deleted":"0","num_feature":"5","num_nodes":"7","size_leaf_vector":"1"}},{"base_weights":[3.0997077E-2,-2.6932386E-1,4.8326898E-1,-4.771034E-1,1.2797211E-1,7.257195E-1,-1.2955739E-1,-1.3953254E-1,-1.8109985E-1,7.823693E-2,7.925367E-1,9.590285E-2,-1.3957262E-1,2.6498786E-1,8.65766E-2],"categories":[],"categories_nodes":[],"categories_segments":[],"categories_sizes":[],"default_left":[0,0,0,0,0,0,0,0,0,0,0,0,0,0,0],"id":4,"left_children":[1,3,5,7,-1,9,-1,11,-1,-1,13,-1,-1,-1,-1],"loss_changes":[3.2546794E0,2.2952466E0,2.4295146E0,4.118843E-1,0E0,3.9132595E-2,0E0,8.168643E-1,0E0,0E0,3.9094448E-2,0E0,0E0,0E0,0E0],"parents":[2147483647,0,0,1,1,2,2,3,3,5,5,7,7,10,10],"right_children":[2,4,6,8,-1,10,-1,12,-1,-1,14,-1,-1,-1,-1],"split_conditions":[1.2855232E0,1.6011149E0,-3.3510116E-1,-7.8515075E-2,1.2797211E-1,-1.9234426E0,-1.2955739E-1,6.79005E-1,-1.8109985E-1,7.823693E-2,-2.1028389E-1,9.590285E-2,-1.3957262E-1,2.6498786E-1,8.65766E-2],"split_indices":[3,2,4,1,0,2,0,0,0,0,1,0,0,0,0],"split_type":[0,0,0,0,0,0,0,0,0,0,0,0,0,0,0],"sum_hessian":[2.2003748E1,1.3466279E1,8.537469E0,1.0612136E1,2.854143E0,6.91295E0,1.6245189E0,3.4670966E0,7.145039E0,1.4847494E0,5.4282007E0,1.4463925E0,2.0207043E0,3.9619465E0,1.4662542E0],"tree_param":{"num_deleted":"0","num_feature":"5","num_nodes":"15","size_leaf_vector":"1"}},{"base_weights":[5.764086E-2,-4.0894055E-1,8.4086925E-1,2.0770596E-2,-1.8626902E-1,2.7287075E-1,8.7014586E-2,2.0704415E-1,-3.515275E-1,-1.515554E-1,3.562668E-3],"categories":[],"categories_nodes":[],"categories_segments":[],"categories_sizes":[],"default_left":[0,0,0,0,0,0,0,0,0,0,0],"id":5,"left_children":[1,3,5,7,-1,-1,-1,-1,9,-1,-1],"loss_changes":[8.757396E0,1.3882782E0,7.380915E-2,1.7268238E0,0E0,0E0,0E0,0E0,2.567008E-1,0E0,0E0],"parents":[2147483647,0,0,1,1,2,2,3,3,8,8],"right_children":[2,4,6,8,-1,-1,-1,-1,10,-1,-1],"split_conditions":[-1.9312091E-3,7.544528E-1,1.7913672E0,-1.0654637E-1,-1.8626902E-1,2.7287075E-1,8.7014586E-2,2.0704415E-1,6.046973E-1,-1.515554E-1,3.562668E-3],"split_indices":[1,0,4,2,0,0,0,0,3,0,0],"split_type":[0,0,0,0,0,0,0,0,0,0,0],"sum_hessian":[2.202303E1,1.4100825E1,7.9222035E0,4.955749E0,9.145076E0,6.4646206E0,1.457583E0,1.4660691E0,3.48968E0,2.1784286E0,1.3112513E0],"tree_param":{"num_deleted":"0","num_feature":"5","num_nodes":"11","size_leaf_vector":"1"}},{"base_weights":[-8.757478E-2,-1.6902405E-1,3.442247E-1,-3.253543E-1,2.326107E-1,-1.4384614E-1,2.9237825E-2],"categories":[],"categories_nodes":[],"categories_segments":[],"categories_sizes":[],"default_left":[0,0,0,0,0,0,0],"id":6,"left_children":[1,-1,3,5,-1,-1,-1],"loss_changes":[4.217505E0,0E0,3.3952122E0,3.705448E-1,0E0,0E0,0E0],"parents":[2147483647,0,0,2,2,3,3],"right_children":[2,-1,4,6,-1,-1,-1],"split_conditions":[7.544528E-1,-1.6902405E-1,-3.3510116E-1,2.709231E0,2.326107E-1,-1.4384614E-1,2.9237825E-2],"split_indices":[0,0,4,0,0,0,0],"split_type":[0,0,0,0,0,0,0],"sum_hessian":[1.8582539E1,8.695442E0,9.887095E0,3.968804E0,5.9182916E0,2.8102975E0,1.1585063E0],"tree_param":{"num_deleted":"0","num_feature":"5","num_nodes":"7","size_leaf_vector":"1"}},{"base_weights":[3.1517223E-2,-2.3046337E-1,4.007517E-1,-4.2920738E-1,1.06872335E-1,5.906953E-1,-1.1503906E-1,-1.2518653E-1,-1.651302E-1,6.594147E-1,5.2847628E-2,7.386513E-2,-1.2423205E-1,7.146956E-2,2.209933E-1],"categories":[],"categories_nodes":[],"categories_segments":[],"categories_sizes":[],"default_left":[0,0,0,0,0,0,0,0,0,0,0,0,0,0,0],"id":7,"left_children":[1,3,5,7,-1,9,-1,11,-1,13,-1,-1,-1,-1,-1],"loss_changes":[2.1860647E0,1.7032596E0,1.6190195E0,3.13843E-1,0E0,1.0943222E-1,0E0,5.585387E-1,0E0,3.361678E-2,0E0,0E0,0E0,0E0,0E0],"parents":[2147483647,0,0,1,1,2,2,3,3,5,5,7,7,9,9],"right_children":[2,4,6,8,-1,10,-1,12,-1,14,-1,-1,-1,-1,-1],"split_conditions":[1.2855232E0,1.6011149E0,-3.3510116E-1,-7.8515075E-2,1.06872335E-1,2.709231E0,-1.1503906E-1,6.79005E-1,-1.651302E-1,6.3996416E-1,5.2847628E-2,7.386513E-2,-1.2423205E-1,7.146956E-2,2.209933E-1],"split_indices":[3,2,4,1,0,0,0,0,0,0,0,0,0,0,0],"split_type":[0,0,0,0,0,0,0,0,0,0,0,0,0,0,0],"sum_hessian":[2.0644342E1,1.2295926E1,8.348416E0,9.385176E0,2.9107506E0,6.9192767E0,1.4291393E0,3.254919E0,6.1302567E0,5.4286246E0,1.490652E0,1.488838E0,1.766081E0,1.4741039E0,3.954521E0],"tree_param":{"num_deleted":"0","num_feature":"5","num_nodes":"15","size_leaf_vector":"1"}},{"base_weights":[4.837857E-2,-3.6065575E-1,6.808708E-1,1.239232E-2,-1.6987425E-1,2.2237366E-1,6.838104E-2,1.7634921E-1,-3.1959382E-1,-1.4141884E-1,6.5058884E-3],"categories":[],"categories_nodes":[],"categories_segments":[],"categories_sizes":[],"default_left":[0,0,0,0,0,0,0,0,0,0,0],"id":8,"left_children":[1,3,5,7,-1,-1,-1,-1,9,-1,-1],"loss_changes":[5.768422E0,1.0514259E0,6.977224E-2,1.2991196E0,0E0,0E0,0E0,0E0,2.3488843E-1,0E0,0E0],"parents":[2147483647,0,0,1,1,2,2,3,3,8,8],"right_children":[2,4,6,8,-1,-1,-1,-1,10,-1,-1],"split_conditions":[-1.9312091E-3,7.544528E-1,1.7913672E0,-1.0654637E-1,-1.6987425E-1,2.2237366E-1,6.838104E-2,1.7634921E-1,6.046973E-1,-1.4141884E-1,6.5058884E-3],"split_indices":[1,0,4,2,0,0,0,0,3,0,0],"split_type":[0,0,0,0,0,0,0,0,0,0,0],"sum_hessian":[2.0347612E1,1.26175785E1,7.7300344E0,4.8169327E0,7.8006454E0,6.259164E0,1.4708703E0,1.4803549E0,3.336578E0,2.0454829E0,1.291095E0],"tree_param":{"num_deleted":"0","num_feature":"5","num_nodes":"11","size_leaf_vector":"1"}},{"base_weights":[-8.158478E-2,-1.5884039E-1,2.995545E-1,-2.8217638E-1,1.9923848E-1,3.4602035E-2,-1.331191E-1],"categories":[],"categories_nodes":[],"categories_segments":[],"categories_sizes":[],"default_left":[0,0,0,0,0,0,0],"id":9,"left_children":[1,-1,3,5,-1,-1,-1],"loss_changes":[3.1432087E0,0E0,2.3261437E0,3.4575492E-1,0E0,0E0,0E0],"parents":[2147483647,0,0,2,2,3,3],"right_children":[2,-1,4,6,-1,-1,-1],"split_conditions":[7.544528E-1,-1.5884039E-1,-3.3510116E-1,-1.9234426E0,1.9923848E-1,3.4602035E-2,-1.331191E-1],"split_indices":[0,0,4,2,0,0,0],"split_type":[0,0,0,0,0,0,0],"sum_hessian":[1.64839E1,7.3994775E0,9.084422E0,3.5869412E0,5.4974813E0,1.1191763E0,2.4677649E0],"tree_param":{"num_deleted":"0","num_feature":"5","num_nodes":"7","size_leaf_vector":"1"}},{"base_weights":[3.1895574E-2,1.7993705E-1,-1.4903802E-1,-1.2467506E-1,2.5109422E-1,5.9809808E-2,1.9625528E-1,-1.418723E-1,4.358932E-1,1.2620303E-1,-1.3726035E-1,-8.4838765E-3,1.9206122E-1,-3.255666E-2,1.3544564E-1],"categories":[],"categories_nodes":[],"categories_segments":[],"categories_sizes":[],"default_left":[0,0,0,0,0,0,0,0,0,0,0,0,0,0,0],"id":10,"left_children":[1,3,-1,-1,5,7,-1,9,11,13,-1,-1,-1,-1,-1],"loss_changes":[1.6500907E0,7.9559803E-1,0E0,0E0,1.132457E0,9.26924E-1,0E0,7.4981356E-1,4.1895807E-1,4.4651437E-1,0E0,0E0,0E0,0E0,0E0],"parents":[2147483647,0,0,1,1,4,4,5,5,7,7,8,8,9,9],"right_children":[2,4,-1,-1,6,8,-1,10,12,14,-1,-1,-1,-1,-1],"split_conditions":[1.1402383E-1,-2.204368E0,-1.4903802E-1,-1.2467506E-1,1.7087761E0,1.3116776E0,1.9625528E-1,-3.356174E-1,1.2014776E-2,6.2271297E-1,-1.3726035E-1,-8.4838765E-3,1.9206122E-1,-3.255666E-2,1.3544564E-1],"split_indices":[1,2,0,0,3,2,0,4,4,0,0,0,0,0,0],"split_type":[0,0,0,0,0,0,0,0,0,0,0,0,0,0,0],"sum_hessian":[1.8940477E1,1.5312408E1,3.6280684E0,1.1177233E0,1.4194685E1,1.0405285E1,3.7893994E0,7.178459E0,3.226826E0,4.2063894E0,2.9720702E0,1.2495545E0,1.9772714E0,2.8303626E0,1.3760267E0],"tree_param":{"num_deleted":"0","num_feature":"5","num_nodes":"15","size_leaf_vector":"1"}},{"base_weights":[4.1085474E-2,4.2509744E-1,-4.6777558E-1,5.9060186E-1,-6.2620044E-2,-1.6004169E-1,4.8678056E-3,6.269041E-2,1.9578464E-1],"categories":[],"categories_nodes":[],"categories_segments":[],"categories_sizes":[],"default_left":[0,0,0,0,0,0,0,0,0],"id":11,"left_children":[1,3,5,7,-1,-1,-1,-1,-1],"loss_changes":[3.9581432E0,1.3283873E0,2.8688693E-1,8.5390806E-2,0E0,0E0,0E0,0E0,0E0],"parents":[2147483647,0,0,1,1,2,2,3,3],"right_children":[2,4,6,8,-1,-1,-1,-1,-1],"split_conditions":[6.2271297E-1,1.6011149E0,-7.600105E-2,-7.623343E-2,-6.2620044E-2,-1.6004169E-1,4.8678056E-3,6.269041E-2,1.9578464E-1],"split_indices":[0,2,1,1,0,0,0,0,0],"split_type":[0,0,0,0,0,0,0,0,0],"sum_hessian":[1.8238102E1,1.0487968E1,7.7501345E0,8.370489E0,2.1174796E0,6.733888E0,1.0162462E0,1.7808411E0,6.589648E0],"tree_param":{"num_deleted":"0","num_feature":"5","num_nodes":"9","size_leaf_vector":"1"}},{"base_weights":[-7.4587576E-2,-1.4983478E-1,2.6945126E-1,-2.4275894E-1,1.7690757E-1,-1.21798515E-1,3.424892E-2],"categories":[],"categories_nodes":[],"categories_segments":[],"categories_sizes":[],"default_left":[0,0,0,0,0,0,0],"id":12,"left_children":[1,-1,3,5,-1,-1,-1],"loss_changes":[2.3797934E0,0E0,1.6419125E0,2.924145E-1,0E0,0E0,0E0],"parents":[2147483647,0,0,2,2,3,3],"right_children":[2,-1,4,6,-1,-1,-1],"split_conditions":[7.544528E-1,-1.4983478E-1,-3.3510116E-1,2.709231E0,1.7690757E-1,-1.21798515E-1,3.424892E-2],"split_indices":[0,0,4,0,0,0,0],"split_type":[0,0,0,0,0,0,0],"sum_hessian":[1.4360421E1,6.223344E0,8.137077E0,3.2233784E0,4.9136987E0,2.1174748E0,1.1059037E0],"tree_param":{"num_deleted":"0","num_feature":"5","num_nodes":"7","size_leaf_vector":"1"}},{"base_weights":[3.177488E-2,1.6286035E-1,-1.3854676E-1,-1.1613038E-1,2.3022416E-1,6.394511E-2,1.7197518E-1,-6.822146E-2,1.5837628E-1,1.04173884E-1,-1.2242363E-1,-5.3908993E-2,7.719241E-2],"categories":[],"categories_nodes":[],"categories_segments":[],"categories_sizes":[],"default_left":[0,0,0,0,0,0,0,0,0,0,0,0,0],"id":13,"left_children":[1,3,-1,-1,5,7,-1,9,-1,11,-1,-1,-1],"loss_changes":[1.2465357E0,6.4644265E-1,0E0,0E0,7.635279E-1,6.844537E-1,0E0,5.765871E-1,0E0,3.4376442E-1,0E0,0E0,0E0],"parents":[2147483647,0,0,1,1,4,4,5,5,7,7,9,9],"right_children":[2,4,-1,-1,6,8,-1,10,-1,12,-1,-1,-1],"split_conditions":[1.1402383E-1,-2.204368E0,-1.3854676E-1,-1.1613038E-1,1.7087761E0,2.2095413E0,1.7197518E-1,1.18156716E-1,1.5837628E-1,2.9667175E-1,-1.2242363E-1,-5.3908993E-2,7.719241E-2],"split_indices":[1,2,0,0,3,2,0,4,0,0,0,0,0],"split_type":[0,0,0,0,0,0,0,0,0,0,0,0,0],"sum_hessian":[1.7102947E1,1.4043457E1,3.0594895E0,1.0145109E0,1.3028947E1,9.574302E0,3.4546444E0,8.115509E0,1.4587929E0,5.8443785E0,2.2711306E0,1.9871905E0,3.857188E0],"tree_param":{"num_deleted":"0","num_feature":"5","num_nodes":"13","size_leaf_vector":"1"}},{"base_weights":[3.3262305E-2,-2.9219663E-1,5.137261E-1,-5.000911E-3,-1.4695394E-1,4.543929E-2,1.7643861E-1,1.4241599E-1,-2.8184164E-1,-1.2751232E-1,5.827061E-3],"categories":[],"categories_nodes":[],"categories_segments":[],"categories_sizes":[],"default_left":[0,0,0,0,0,0,0,0,0,0,0],"id":14,"left_children":[1,3,5,7,-1,-1,-1,-1,9,-1,-1],"loss_changes":[2.8320146E0,6.1413497E-1,1.0737264E-1,8.560432E-1,0E0,0E0,0E0,0E0,1.8409082E-1,0E0,0E0],"parents":[2147483647,0,0,1,1,2,2,3,3,8,8],"right_children":[2,4,6,8,-1,-1,-1,-1,10,-1,-1],"split_conditions":[-1.9312091E-3,7.544528E-1,1.1402383E-1,-1.0654637E-1,-1.4695394E-1,4.543929E-2,1.7643861E-1,1.4241599E-1,6.046973E-1,-1.2751232E-1,5.827061E-3],"split_indices":[1,0,1,2,0,0,0,0,3,0,0],"split_type":[0,0,0,0,0,0,0,0,0,0,0],"sum_hessian":[1.6150887E1,9.862215E0,6.288671E0,4.438353E0,5.4238625E0,1.5887718E0,4.699899E0,1.3625298E0,3.0758233E0,1.806359E0,1.2694643E0],"tree_param":{"num_deleted":"0","num_feature":"5","num_nodes":"11","size_leaf_vector":"1"}},{"base_weights":[-6.943582E-2,-1.4202257E-1,2.4562019E-1,-2.1011497E-1,1.609328E-1,4.0187143E-2,-1.1432027E-1],"categories":[],"categories_nodes":[],"categories_segments":[],"categories_sizes":[],"default_left":[0,0,0,0,0,0,0],"id":15,"left_children":[1,-1,3,5,-1,-1,-1],"loss_changes":[1.8237573E0,0E0,1.198969E0,2.8110576E-1,0E0,0E0,0E0],"parents":[2147483647,0,0,2,2,3,3],"right_children":[2,-1,4,6,-1,-1,-1],"split_conditions":[7.544528E-1,-1.4202257E-1,-3.3510116E-1,-1.9234426E0,1.609328E-1,4.0187143E-2,-1.1432027E-1],"split_indices":[0,0,4,2,0,0,0],"split_type":[0,0,0,0,0,0,0],"sum_hessian":[1.2415766E1,5.219971E0,7.195795E0,2.9112372E0,4.284558E0,1.0381618E0,1.8730754E0],"tree_param":{"num_deleted":"0","num_feature":"5","num_nodes":"7","size_leaf_vector":"1"}},{"base_weights":[2.9510746E-2,1.4288539E-1,-1.2681706E-1,1.5271933E-1,4.759617E-2,-5.0922193E-2,1.411441E-1,5.9886914E-2,-1.1152101E-1,-1.2243322E-1,2.0471697E-1,-5.298643E-2,9.528693E-2],"categories":[],"categories_nodes":[],"categories_segments":[],"categories_sizes":[],"default_left":[0,0,0,0,0,0,0,0,0,0,0,0,0],"id":16,"left_children":[1,3,-1,-1,5,7,-1,9,-1,-1,11,-1,-1],"loss_changes":[9.0111935E-1,4.5931122E-1,0E0,0E0,5.28044E-1,4.0319362E-1,0E0,6.817672E-1,0E0,0E0,3.7496802E-1,0E0,0E0],"parents":[2147483647,0,0,1,1,4,4,5,5,7,7,10,10],"right_children":[2,4,-1,-1,6,8,-1,10,-1,-1,12,-1,-1],"split_conditions":[1.1402383E-1,-2.146597E0,-1.2681706E-1,1.5271933E-1,2.2095413E0,1.18156716E-1,1.411441E-1,2.9667175E-1,-1.1152101E-1,-1.2243322E-1,-2.1836534E0,-5.298643E-2,9.528693E-2],"split_indices":[1,4,0,0,2,4,0,0,0,0,2,0,0],"split_type":[0,0,0,0,0,0,0,0,0,0,0,0,0],"sum_hessian":[1.5397253E1,1.285785E1,2.5394034E0,1.7583858E0,1.1099464E1,9.715621E0,1.3838428E0,7.8258924E0,1.889729E0,1.419883E0,6.406009E0,1.3344859E0,5.071523E0],"tree_param":{"num_deleted":"0","num_feature":"5","num_nodes":"13","size_leaf_vector":"1"}},{"base_weights":[2.952374E-2,3.1705078E-1,-4.0480784E-1,4.6157914E-1,-5.481833E-2,-1.6239593E-2,-1.3793862E-1,4.5560148E-2,1.5927917E-1],"categories":[],"categories_nodes":[],"categories_segments":[],"categories_sizes":[],"default_left":[0,0,0,0,0,0,0,0,0],"id":17,"left_children":[1,3,5,7,-1,-1,-1,-1,-1],"loss_changes":[2.021809E0,7.8380686E-1,1.0003352E-1,8.6797E-2,0E0,0E0,0E0,0E0,0E0],"parents":[2147483647,0,0,1,1,2,2,3,3],"right_children":[2,4,6,8,-1,-1,-1,-1,-1],"split_conditions":[6.2271297E-1,1.6011149E0,7.544528E-1,-7.623343E-2,-5.481833E-2,-1.6239593E-2,-1.3793862E-1,4.5560148E-2,1.5927917E-1],"split_indices":[0,2,0,1,0,0,0,0,0],"split_type":[0,0,0,0,0,0,0,0,0],"sum_hessian":[1.4162019E1,8.683546E0,5.478472E0,6.7949753E0,1.8885711E0,1.0115952E0,4.466877E0,1.8267642E0,4.968211E0],"tree_param":{"num_deleted":"0","num_feature":"5","num_nodes":"9","size_leaf_vector":"1"}},{"base_weights":[-6.321611E-2,-1.3453047E-1,2.235806E-1,-1.8676095E-1,1.4911991E-1,-1.077149E-1,4.0189046E-2],"categories":[],"categories_nodes":[],"categories_segments":[],"categories_sizes":[],"default_left":[0,0,0,0,0,0,0],"id":18,"left_children":[1,-1,3,5,-1,-1,-1],"loss_changes":[1.3970307E0,0E0,9.2279243E-1,2.5170374E-1,0E0,0E0,0E0],"parents":[2147483647,0,0,2,2,3,3],"right_children":[2,-1,4,6,-1,-1,-1],"split_conditions":[7.544528E-1,-1.3453047E-1,-3.3510116E-1,2.709231E0,1.4911991E-1,-1.077149E-1,4.0189046E-2],"split_indices":[0,0,4,0,0,0,0],"split_type":[0,0,0,0,0,0,0],"sum_hessian":[1.0737651E1,4.341991E0,6.3956604E0,2.6846642E0,3.7109962E0,1.668743E0,1.0159212E0],"tree_param":{"num_deleted":"0","num_feature":"5","num_nodes":"7","size_leaf_vector":"1"}},{"base_weights":[2.8540092E-2,1.3035819E-1,-1.1846988E-1,1.3912608E-1,4.0244263E-2,-5.3105466E-2,1.2697774E-1,-1.1343908E-1,3.824398E-2,2.50252E-1,-2.146849E-1,1.8346325E-3,1.3371386E-1,6.439107E-2,-1.2342904E-1],"categories":[],"categories_nodes":[],"categories_segments":[],"categories_sizes":[],"default_left":[0,0,0,0,0,0,0,0,0,0,0,0,0,0,0],"id":19,"left_children":[1,3,-1,-1,5,7,-1,-1,9,11,13,-1,-1,-1,-1],"loss_changes":[6.9366014E-1,3.646786E-1,0E0,0E0,4.2076638E-1,3.067726E-1,0E0,0E0,5.145269E-1,2.4238834E-1,4.6475756E-1,0E0,0E0,0E0,0E0],"parents":[2147483647,0,0,1,1,4,4,5,5,8,8,9,9,10,10],"right_children":[2,4,-1,-1,6,8,-1,-1,10,12,14,-1,-1,-1,-1],"split_conditions":[1.1402383E-1,-2.146597E0,-1.1846988E-1,1.3912608E-1,2.2095413E0,2.9667175E-1,1.2697774E-1,-1.1343908E-1,-3.3510116E-1,-7.383772E-1,7.544528E-1,1.8346325E-3,1.3371386E-1,6.439107E-2,-1.2342904E-1],"split_indices":[1,4,0,0,2,0,0,0,4,4,0,0,0,0,0],"split_type":[0,0,0,0,0,0,0,0,0,0,0,0,0,0,0],"sum_hessian":[1.3895031E1,1.1759539E1,2.1354926E0,1.6199374E0,1.0139601E1,8.845173E0,1.294428E0,1.2518086E0,7.5933642E0,4.1366E0,3.4567642E0,2.297829E0,1.8387712E0,1.0577304E0,2.3990338E0],"tree_param":{"num_deleted":"0","num_feature":"5","num_nodes":"15","size_leaf_vector":"1"}},{"base_weights":[2.3612058E-2,2.8057107E-1,-3.7814572E-1,4.1611224E-1,-4.8296157E-2,-1.3144103E-1,-1.7167225E-2,4.2592403E-2,1.4583361E-1],"categories":[],"categories_nodes":[],"categories_segments":[],"categories_sizes":[],"default_left":[0,0,0,0,0,0,0,0,0],"id":20,"left_children":[1,3,5,7,-1,-1,-1,-1,-1],"loss_changes":[1.4916441E0,5.912581E-1,8.392435E-2,6.495428E-2,0E0,0E0,0E0,0E0,0E0],"parents":[2147483647,0,0,1,1,2,2,3,3],"right_children":[2,4,6,8,-1,-1,-1,-1,-1],"split_conditions":[6.2271297E-1,1.6011149E0,-9.069081E-2,-7.623343E-2,-4.8296157E-2,-1.3144103E-1,-1.7167225E-2,4.2592403E-2,1.4583361E-1],"split_indices":[0,2,1,1,0,0,0,0,0],"split_type":[0,0,0,0,0,0,0,0,0],"sum_hessian":[1.2421259E1,7.759821E0,4.6614385E0,5.981394E0,1.7784272E0,3.6195736E0,1.0418649E0,1.8326126E0,4.1487813E0],"tree_param":{"num_deleted":"0","num_feature":"5","num_nodes":"9","size_leaf_vector":"1"}},{"base_weights":[-6.2217884E-2,-1.2758428E-1,2.008851E-1,-9.656275E-2,3.8494098E-1,2.2782592E-2,1.3696815E-1],"categories":[],"categories_nodes":[],"categories_segments":[],"categories_sizes":[],"default_left":[0,0,0,0,0,0,0],"id":21,"left_children":[1,-1,3,-1,5,-1,-1],"loss_changes":[1.06425E0,0E0,7.6091397E-1,0E0,8.376819E-2,0E0,0E0],"parents":[2147483647,0,0,2,2,4,4],"right_children":[2,-1,4,-1,6,-1,-1],"split_conditions":[7.544528E-1,-1.2758428E-1,-8.272727E-1,-9.656275E-2,-3.3510116E-1,2.2782592E-2,1.3696815E-1],"split_indices":[0,0,4,0,4,0,0],"split_type":[0,0,0,0,0,0,0],"sum_hessian":[9.246931E0,3.626382E0,5.620549E0,1.2686105E0,4.3519387E0,1.2065759E0,3.1453629E0],"tree_param":{"num_deleted":"0","num_feature":"5","num_nodes":"7","size_leaf_vector":"1"}},{"base_weights":[3.0649537E-2,1.24426834E-1,-1.1083436E-1,1.2925214E-1,3.6616735E-2,-5.296465E-2,1.1543877E-1,-1.0531757E-1,3.3944655E-2,1.5519121E-1,-9.4607435E-2,-3.0295592E-2,8.550447E-2],"categories":[],"categories_nodes":[],"categories_segments":[],"categories_sizes":[],"default_left":[0,0,0,0,0,0,0,0,0,0,0,0,0],"id":22,"left_children":[1,3,-1,-1,5,7,-1,-1,9,11,-1,-1,-1],"loss_changes":[5.507588E-1,2.976085E-1,0E0,0E0,3.3683294E-1,2.4375032E-1,0E0,0E0,3.8099733E-1,2.446381E-1,0E0,0E0,0E0],"parents":[2147483647,0,0,1,1,4,4,5,5,8,8,9,9],"right_children":[2,4,-1,-1,6,8,-1,-1,10,12,-1,-1,-1],"split_conditions":[1.1402383E-1,-2.146597E0,-1.1083436E-1,1.2925214E-1,2.2095413E0,2.9667175E-1,1.1543877E-1,-1.0531757E-1,1.18156716E-1,-2.846357E-1,-9.4607435E-2,-3.0295592E-2,8.550447E-2],"split_indices":[1,4,0,0,2,0,0,0,4,1,0,0,0],"split_type":[0,0,0,0,0,0,0,0,0,0,0,0,0],"sum_hessian":[1.2453859E1,1.064729E1,1.8065691E0,1.5014554E0,9.145835E0,7.948646E0,1.197189E0,1.1082039E0,6.840442E0,5.4903846E0,1.3500574E0,1.9212954E0,3.5690894E0],"tree_param":{"num_deleted":"0","num_feature":"5","num_nodes":"13","size_leaf_vector":"1"}},{"base_weights":[1.88307E-2,2.1961108E-1,-1.2349987E-1,2.6527092E-2,1.3668863E-1,2.879583E-1,-1.16687275E-1,1.264655E-1,2.154257E-2],"categories":[],"categories_nodes":[],"categories_segments":[],"categories_sizes":[],"default_left":[0,0,0,0,0,0,0,0,0],"id":23,"left_children":[1,3,-1,5,-1,7,-1,-1,-1],"loss_changes":[1.1240454E0,3.8926762E-1,0E0,7.5351834E-1,0E0,9.099898E-2,0E0,0E0,0E0],"parents":[2147483647,0,0,1,1,3,3,5,5],"right_children":[2,4,-1,6,-1,8,-1,-1,-1],"split_conditions":[7.544528E-1,1.1402383E-1,-1.2349987E-1,8.6450416E-1,1.3668863E-1,-1.0654637E-1,-1.16687275E-1,1.264655E-1,2.154257E-2],"split_indices":[0,1,0,2,0,2,0,0,0],"split_type":[0,0,0,0,0,0,0,0,0],"sum_hessian":[1.0958523E1,7.807181E0,3.151342E0,4.906011E0,2.9011698E0,3.199657E0,1.7063539E0,1.3901722E0,1.8094847E0],"tree_param":{"num_deleted":"0","num_feature":"5","num_nodes":"9","size_leaf_vector":"1"}},{"base_weights":[-5.774411E-2,-1.2071396E-1,1.8186347E-1,-9.042155E-2,3.5680184E-1,2.2737712E-2,1.2787345E-1],"categories":[],"categories_nodes":[],"categories_segments":[],"categories_sizes":[],"default_left":[0,0,0,0,0,0,0],"id":24,"left_children":[1,-1,3,-1,5,-1,-1],"loss_changes":[8.218641E-1,0E0,6.1791426E-1,0E0,6.31243E-2,0E0,0E0],"parents":[2147483647,0,0,2,2,4,4],"right_children":[2,-1,4,-1,6,-1,-1],"split_conditions":[7.544528E-1,-1.2071396E-1,-8.272727E-1,-9.042155E-2,-3.3510116E-1,2.2737712E-2,1.2787345E-1],"split_indices":[0,0,4,0,4,0,0],"split_type":[0,0,0,0,0,0,0],"sum_hessian":[8.066483E0,3.0295908E0,5.036892E0,1.1465678E0,3.890324E0,1.1852989E0,2.7050252E0],"tree_param":{"num_deleted":"0","num_feature":"5","num_nodes":"7","size_leaf_vector":"1"}},{"base_weights":[2.8150277E-2,1.11122325E-1,-1.0134205E-1,1.1883233E-1,2.7738102E-2,-5.4401156E-2,1.0306856E-1,-9.935629E-2,2.9537333E-2,1.3403632E-1,-8.5954666E-2,-5.0060596E-2,7.0958175E-2],"categories":[],"categories_nodes":[],"categories_segments":[],"categories_sizes":[],"default_left":[0,0,0,0,0,0,0,0,0,0,0,0,0],"id":25,"left_children":[1,3,-1,-1,5,7,-1,-1,9,11,-1,-1,-1],"loss_changes":[4.0919852E-1,2.4400045E-1,0E0,0E0,2.619362E-1,2.0272489E-1,0E0,0E0,2.7918282E-1,2.2944704E-1,0E0,0E0,0E0],"parents":[2147483647,0,0,1,1,4,4,5,5,8,8,9,9],"right_children":[2,4,-1,-1,6,8,-1,-1,10,12,-1,-1,-1],"split_conditions":[1.1402383E-1,-2.146597E0,-1.0134205E-1,1.1883233E-1,2.2095413E0,2.9667175E-1,1.0306856E-1,-9.935629E-2,1.18156716E-1,-2.1836534E0,-8.5954666E-2,-5.0060596E-2,7.0958175E-2],"split_indices":[1,4,0,0,2,0,0,0,4,2,0,0,0],"split_type":[0,0,0,0,0,0,0,0,0,0,0,0,0],"sum_hessian":[1.1240089E1,9.730322E0,1.509767E0,1.3536181E0,8.376704E0,7.3046603E0,1.0720434E0,1.0143268E0,6.2903337E0,5.160112E0,1.1302218E0,1.1514419E0,4.00867E0],"tree_param":{"num_deleted":"0","num_feature":"5","num_nodes":"13","size_leaf_vector":"1"}},{"base_weights":[1.6902003E-2,2.018865E-1,-1.1670808E-1,2.9916215E-1,-3.8847566E-2,3.0199839E-2,1.3032714E-1,1.618531E-2,-2.1233791E-3],"categories":[],"categories_nodes":[],"categories_segments":[],"categories_sizes":[],"default_left":[0,0,0,0,0,0,0,0,0],"id":26,"left_children":[1,3,-1,5,-1,7,-1,-1,-1],"loss_changes":[8.73669E-1,2.9444158E-1,0E0,2.2096574E-1,0E0,3.2397215E-3,0E0,0E0,0E0],"parents":[2147483647,0,0,1,1,3,3,5,5],"right_children":[2,4,-1,6,-1,8,-1,-1,-1],"split_conditions":[7.544528E-1,1.6011149E0,-1.1670808E-1,-7.623343E-2,-3.8847566E-2,8.1814826E-1,1.3032714E-1,1.618531E-2,-2.1233791E-3],"split_indices":[0,2,0,1,0,3,0,0,0],"split_type":[0,0,0,0,0,0,0,0,0],"sum_hessian":[9.5889435E0,6.93244E0,2.6565034E0,5.434399E0,1.4980408E0,2.2277925E0,3.2066064E0,1.0875801E0,1.1402124E0],"tree_param":{"num_deleted":"0","num_feature":"5","num_nodes":"9","size_leaf_vector":"1"}},{"base_weights":[-5.2168332E-2,-1.139911E-1,1.6688988E-1,-8.463406E-2,3.317097E-1,2.1614498E-2,1.2032521E-1],"categories":[],"categories_nodes":[],"categories_segments":[],"categories_sizes":[],"default_left":[0,0,0,0,0,0,0],"id":27,"left_children":[1,-1,3,-1,5,-1,-1],"loss_changes":[6.4305955E-1,0E0,5.0308496E-1,0E0,5.2295983E-2,0E0,0E0],"parents":[2147483647,0,0,2,2,4,4],"right_children":[2,-1,4,-1,6,-1,-1],"split_conditions":[7.544528E-1,-1.139911E-1,-8.272727E-1,-8.463406E-2,-3.3510116E-1,2.1614498E-2,1.2032521E-1],"split_indices":[0,0,4,0,4,0,0],"split_type":[0,0,0,0,0,0,0],"sum_hessian":[7.0722013E0,2.5386958E0,4.5335054E0,1.0262204E0,3.5072849E0,1.1692896E0,2.3379955E0],"tree_param":{"num_deleted":"0","num_feature":"5","num_nodes":"7","size_leaf_vector":"1"}},{"base_weights":[2.5562434E-2,1.0168598E-1,-9.462792E-2,-7.852738E-2,2.1301132E-1,6.49967E-2,-7.2985925E-2,6.0710717E-2,1.2063804E-1,-4.7698088E-2,7.717632E-2,-5.8744747E-2,8.259399E-2],"categories":[],"categories_nodes":[],"categories_segments":[],"categories_sizes":[],"default_left":[0,0,0,0,0,0,0,0,0,0,0,0,0],"id":28,"left_children":[1,3,-1,5,7,9,-1,11,-1,-1,-1,-1,-1],"loss_changes":[3.237338E-1,2.1618146E-1,0E0,1.2286088E-1,1.6034815E-1,1.7907423E-1,0E0,3.143621E-1,0E0,0E0,0E0,0E0,0E0],"parents":[2147483647,0,0,1,1,3,3,4,4,5,5,7,7],"right_children":[2,4,-1,6,8,10,-1,12,-1,-1,-1,-1,-1],"split_conditions":[1.1402383E-1,-4.17333E-1,-9.462792E-2,-1.4322426E0,8.1814826E-1,-2.1836534E0,-7.2985925E-2,-1.3119375E-2,1.2063804E-1,-4.7698088E-2,7.717632E-2,-5.8744747E-2,8.259399E-2],"split_indices":[1,2,0,2,3,2,0,4,0,0,0,0,0],"split_type":[0,0,0,0,0,0,0,0,0,0,0,0,0],"sum_hessian":[1.0236131E1,8.941737E0,1.2943941E0,3.526941E0,5.414796E0,2.2085469E0,1.3183941E0,3.7310717E0,1.683724E0,1.1000034E0,1.1085436E0,1.739405E0,1.9916667E0],"tree_param":{"num_deleted":"0","num_feature":"5","num_nodes":"13","size_leaf_vector":"1"}},{"base_weights":[1.4104427E-2,2.1077508E-1,-9.504897E-2,3.2226557E-1,-3.459143E-2,1.2667264E-1,1.2740253E-1,1.145613E-2,4.737654E-2],"categories":[],"categories_nodes":[],"categories_segments":[],"categories_sizes":[],"default_left":[0,0,0,0,0,0,0,0,0],"id":29,"left_children":[1,3,-1,5,-1,7,-1,-1,-1],"loss_changes":[6.84621E-1,2.7545625E-1,0E0,4.9326003E-2,0E0,2.801858E-3,0E0,0E0,0E0],"parents":[2147483647,0,0,1,1,3,3,5,5],"right_children":[2,4,-1,6,-1,8,-1,-1,-1],"split_conditions":[6.2271297E-1,1.6011149E0,-9.504897E-2,3.4668934E-1,-3.459143E-2,1.7167252E-1,1.2740253E-1,1.145613E-2,4.737654E-2],"split_indices":[0,2,0,2,0,0,0,0,0],"split_type":[0,0,0,0,0,0,0,0,0],"sum_hessian":[8.4928255E0,5.5547748E0,2.938051E0,4.1481657E0,1.4066087E0,2.1942568E0,1.9539092E0,1.152589E0,1.0416678E0],"tree_param":{"num_deleted":"0","num_feature":"5","num_nodes":"9","size_leaf_vector":"1"}}]},"name":"gbtree"},"learner_model_param":{"base_score":"[2.6E-1,3.6E-1,3.8E-1]","boost_from_average":"1","num_class":"3","num_feature":"5","num_target":"1"},"objective":{"name":"multi:softprob","softmax_multiclass_param":{"num_class":"3"}}},"version":[3,1,2]}